
\data\
ngram 1=12
ngram 2=120
ngram 3=1196
ngram 4=2025

\1-grams:
-1.035029	</s>
-99	<s>	-99
-1.023036	一	0
-1.038518	七	0
-1.040712	三	0
-1.042476	九	0
-1.030708	二	0
-1.038518	五	0
-1.04781	八	0
-1.054117	六	0
-1.04781	四	0
-1.057763	零	0

\2-grams:
-0.9665762	<s> 一	-1.016659
-1.026872	<s> 七	-1.038117
-0.924453	<s> 三	-1.003942
-1.026872	<s> 九	-0.9894907
-1.013228	<s> 二	-1.032228
-1.022276	<s> 五	-0.9857596
-1.022276	<s> 八	-0.9193316
-1.031517	<s> 六	-1.013406
-1.055517	<s> 四	-0.98336
-0.9318141	<s> 零	-1.090251
-1.020767	一 </s>
-1.016358	一 一	0
-1.016358	一 七	0
-1.06751	一 三	0
-1.025221	一 九	0
-1.057751	一 二	0
-1.057751	一 五	0
-1.003393	一 八	0
-1.082574	一 六	0
-1.048205	一 四	0
-1.06751	一 零	0
-0.9396068	七 </s>
-1.052029	七 一	0
-1.062013	七 七	0
-1.12728	七 三	-0.8050231
-0.9358138	七 九	0
-1.018788	七 二	0
-1.115698	七 五	0
-1.104417	七 八	0
-1.042269	七 六	0
-1.052029	七 四	0
-1.052029	七 零	0
-1.075239	三 </s>
-1.016594	三 一	0
-1.016594	三 七	0
-1.049834	三 三	0
-1.030529	三 九	0
-1.040075	三 二	0
-1.044927	三 五	-0.9119207
-1.021189	三 八	0
-1.070038	三 六	0
-1.021189	三 四	0
-1.075239	三 零	0
-0.9882321	九 </s>
-0.9925535	九 一	0
-1.028766	九 七	0
-1.089463	九 三	0
-1.100459	九 九	0
-0.9969183	九 二	0
-1.024071	九 五	0
-1.010282	九 八	0
-1.094926	九 六	0
-1.038311	九 四	0
-1.117492	九 零	0
-0.9589984	二 </s>
-1.054931	二 一	0
-1.050079	二 七	0
-1.112227	二 三	0
-1.035838	二 九	0
-1.095836	二 二	0
-1.035838	二 五	0
-1.080042	二 八	0
-0.9914842	二 六	0
-1.01755	二 四	0
-1.04528	二 零	0
-0.9965117	五 </s>
-1.110021	五 一	0
-1.042269	五 七	0
-1.01424	五 三	0
-1.093422	五 九	0
-1.047122	五 二	0
-1.03747	五 五	0
-0.9965117	五 八	0
-1.062013	五 六	0
-1.03747	五 四	0
-1.032724	五 零	0
-1.06294	八 </s>
-1.052721	八 一	0
-1.028178	八 七	0
-1.014091	八 三	0
-0.9915841	八 九	0
-1.068141	八 二	0
-1.018736	八 五	0
-1.084129	八 八	0
-1.018736	八 六	0
-1.037829	八 四	0
-1.089592	八 零	0
-0.9597226	六 </s>
-1.012429	六 一	0
-1.056633	六 七	0
-1.067098	六 三	0
-1.026669	六 九	0
-1.061834	六 二	0
-1.012429	六 五	0
-1.083285	六 八	0
-1.105851	六 六	0
-1.051493	六 四	0
-1.036429	六 零	0
-0.9660299	四 </s>
-0.9619133	四 一	0
-1.032977	四 七	0
-1.032977	四 三	0
-1.112158	四 九	0
-1.028178	四 二	-0.8468149
-1.052721	四 五	0
-1.117988	四 八	0
-0.9959931	四 六	0
-1.078734	四 四	0
-1.112158	四 零	0
-0.981631	零 </s>
-1.037747	零 一	0
-1.068781	零 七	-0.7865341
-0.9860401	零 三	0
-1.132168	零 九	0
-0.9280482	零 二	0
-1.008783	零 五	0
-1.027876	零 八	0
-1.126008	零 六	0
-1.096453	零 四	0
-1.113943	零 零	0

\3-grams:
-0.8912985	<s> 一 一	0.1252698
-0.9234831	<s> 一 七	0.06773305
-1.083184	<s> 一 三	0.001229197
-1.083184	<s> 一 九	-0.02267268
-0.9960338	<s> 一 二	0.04794301
-1.037426	<s> 一 五	0.0744216
-0.8912985	<s> 一 八	0.09778337
-1.083184	<s> 一 六	-0.0006731004
-1.192328	<s> 一 四	-0.0322152
-0.9582453	<s> 一 零	0.05212793
-0.9542425	一 一 </s>
-1.217484	一 一 一	-0.02749698
-1.150537	一 一 七	-0.01295216
-1.217484	一 一 三	-0.01865157
-0.8816918	一 一 九	0.1802243
-1.150537	一 一 二	0.004744116
-1.041393	一 一 五	0.02415048
-0.9542425	一 一 八	0.03481034
-1.217484	一 一 六	0.006060265
-0.9542425	一 一 四	0.1266353
-0.916454	一 一 零	0.07348076
-0.90309	七 一 </s>
-0.9444827	七 一 一	-0.009937253
-0.90309	七 一 七	0.07766452
-1.166331	七 一 三	-0.01325653
-1.041393	七 一 九	-0.001107812
-1.099385	七 一 二	0.03860238
-1.041393	七 一 五	0.03885242
-0.8653014	七 一 八	0.06402908
-1.166331	七 一 六	-0.0006731227
-1.166331	七 一 四
-1.467361	七 一 零
-1.074634	三 一 </s>
-0.9363309	三 一 一	0.07366118
-1.132626	三 一 七	0.04600091
-1.199572	三 一 三	-0.01779405
-1.074634	三 一 九	0.006923661
-0.9777236	三 一 二	0.04431942
-0.8315955	三 一 五	0.05639069
-1.074634	三 一 八	0.0287521
-1.278754	三 一 六	-0.0008608997
-1.074634	三 一 四	0.02036902
-0.9777236	三 一 零	0.03617322
-1.154902	九 一 </s>
-0.79588	九 一 一	0.2083072
-1.09691	九 一 七	-0.003735013
-1.221849	九 一 三	-0.05350961
-0.9586073	九 一 九	0.0628444
-1.30103	九 一 二	-0.02069806
-1.045758	九 一 五	0.004554935
-1.09691	九 一 八	0.01834755
-1	九 一 六	0.02859406
-1.09691	九 一 四	-0.001060221
-0.9208187	九 一 零	0.07930698
-0.7732987	二 一 </s>
-0.9951475	二 一 一	0.05505566
-1.34733	二 一 七
-0.94939	二 一 三	0.06239963
-1.472269	二 一 九	-0.03349694
-0.9951475	二 一 二	0.06682057
-0.8702087	二 一 五	0.1124839
-0.803262	二 一 八	0.1870995
-1.34733	二 一 六
-1.25042	二 一 四	-0.01648158
-1.34733	二 一 零
-1.187521	五 一 </s>
-1.187521	五 一 一	-0.01530303
-0.9322482	五 一 七	0.02719817
-0.9834008	五 一 三	-0.009659998
-1.187521	五 一 九	0.0172262
-0.8073095	五 一 二	0.1892871
-1.585461	五 一 五
-1.187521	五 一 八	-0.0216432
-0.8864907	五 一 六	0.02614658
-0.8073095	五 一 四	0.01567543
-1.284431	五 一 零	-0.03240148
-0.980256	八 一 </s>
-0.9344984	八 一 一	0.05415738
-0.9344984	八 一 七	0.02069462
-0.8931057	八 一 三	0.07126531
-1.0894	八 一 九	0.02394188
-1.0894	八 一 二	0.03759338
-1.156347	八 一 五	0.02453202
-1.156347	八 一 八
-1.0894	八 一 六	-0.01519249
-1.0894	八 一 四	0.01428943
-1.156347	八 一 零	0.021124
-1.01424	六 一 </s>
-1.667453	六 一 一
-1.01424	六 一 七	0.1168067
-1.01424	六 一 三	0.02487605
-0.8893017	六 一 九	0.05287228
-1.01424	六 一 二	0.04467214
-1.269513	六 一 五	-0.01678228
-1.01424	六 一 八	0.02845912
-0.8545396	六 一 六	0.1647267
-1.01424	六 一 四	0.02072505
-1.123385	六 一 零	-0.01721612
-0.8791778	四 一 </s>
-1.247155	四 一 一
-0.8791778	四 一 七	0.1616744
-0.9461246	四 一 三	0.06035258
-0.9461246	四 一 九	0.1535897
-1.247155	四 一 二	-0.008891728
-1.423246	四 一 五
-1.025306	四 一 八	0.06078218
-1.071063	四 一 六	0.0695805
-1.025306	四 一 四	0.06242724
-1.071063	四 一 零	0.05622365
-0.9852768	零 一 </s>
-0.9395192	零 一 一	0.04836605
-1.094421	零 一 七	0.009707537
-1.240549	零 一 三	-0.01406748
-0.9852768	零 一 九	0.07848821
-1.094421	零 一 二	0.009427082
-0.8981265	零 一 五	0.1570456
-1.240549	零 一 八	-0.04462712
-1.161368	零 一 六	-0.0002915561
-0.9852768	零 一 四	0.01421798
-0.9852768	零 一 零	0.1030281
-1.023481	<s> 七 一	0.06387601
-1.278754	<s> 七 七	-0.03504708
-1.199572	<s> 七 三	0.01423207
-0.8985423	<s> 七 九	0.07426935
-0.8985423	<s> 七 二	0.05978245
-1.132626	<s> 七 五	0.04207496
-0.8985423	<s> 七 八	0.1130118
-0.9777236	<s> 七 六	0.02372466
-0.8637803	<s> 七 四	0.1293351
-1.074634	<s> 七 零	-0.003629744
-0.7651863	一 七 </s>
-1.150537	一 七 一	0.005271122
-1.296665	一 七 七	-0.02958419
-0.916454	一 七 三	0.1568033
-0.8816918	一 七 九	0.1441648
-0.9956352	一 七 二	0.04720577
-1.217484	一 七 五	0.02682382
-1.518514	一 七 八	-0.06393317
-1.150537	一 七 六	0.003326371
-1.092545	一 七 四	0.0873865
-0.9542425	一 七 零	0.0270862
-0.8205551	七 七 </s>
-1.031408	七 七 一	-0.009659998
-1.0894	七 七 七
-0.980256	七 七 三
-1.156347	七 七 九
-0.980256	七 七 二	0.0167243
-1.156347	七 七 五	8.957088e-05
-1.235528	七 七 八
-0.8931057	七 七 六	0.01754087
-1.235528	七 七 四	0.02069462
-1.0894	七 七 零	0.0129105
-0.9363309	三 七 </s>
-1.074634	三 七 一	0.001063865
-1.074634	三 七 七	0.03016496
-0.9363309	三 七 三	0.1724204
-0.8637803	三 七 九	0.1369862
-1.023481	三 七 二	0.005587935
-1.199572	三 七 五	0.02682382
-1.074634	三 七 八	-0.0122389
-1.132626	三 七 六	0.02335765
-1.199572	三 七 四	0.07911595
-1.074634	三 七 零	0.04014917
-0.9637879	九 七 </s>
-1.185637	九 七 一	0.009019859
-0.8176598	九 七 七	0.1352
-1.009545	九 七 三	0.07664136
-1.009545	九 七 九	0.02444109
-1.060698	九 七 二	0.02890977
-1.264818	九 七 五
-1.009545	九 七 八	0.0589126
-1.11869	九 七 六	0.01050495
-1.009545	九 七 四	-0.02704309
-1.185637	九 七 零
-0.9542425	二 七 </s>
-0.9542425	二 七 一	0.005170755
-0.9128498	二 七 七	0.05497853
-1.176091	二 七 三	0.006716121
-0.8402991	二 七 九	0.04353246
-1.109144	二 七 二
-1.176091	二 七 五	-0.02509398
-1.109144	二 七 八	-0.005621888
-1.109144	二 七 六	0.004744116
-1.255273	二 七 四	-0.04625217
-1.051152	二 七 零	0.01205925
-1	五 七 </s>
-1.051152	五 七 一	0.01459507
-1.051152	五 七 七	-0.008920353
-1.051152	五 七 三	-0.009557784
-0.7781513	五 七 九	0.102519
-0.9128498	五 七 二	0.02700498
-1.051152	五 七 五	0.007975861
-1.352183	五 七 八
-1.176091	五 七 六	-0.01422056
-1.176091	五 七 四	-0.01865157
-1.109144	五 七 零	0.01359782
-0.8129134	八 七 </s>
-1.055951	八 七 一	0.008563295
-1.004799	八 七 七	0.04044593
-1.260071	八 七 三	-0.01746909
-1.113943	八 七 九	-0.02252313
-1.18089	八 七 二
-1.004799	八 七 五	0.08239367
-1.004799	八 七 八	0.03420343
-1.18089	八 七 六	-0.0194848
-0.8798602	八 七 四	0.1372989
-1.18089	八 七 零	-0.007793639
-0.8103359	六 七 </s>
-0.9700368	六 七 一	0.05645198
-0.9700368	六 七 七	0.06236685
-1.322219	六 七 三
-1.447158	六 七 九
-1.146128	六 七 二
-1.225309	六 七 五	-0.0349884
-1.322219	六 七 八	-0.05601781
-0.8828866	六 七 六	0.01727652
-0.9242793	六 七 四	0.1245475
-0.9242793	六 七 零	0.02831064
-1.051152	四 七 </s>
-1.109144	四 七 一	0.008913413
-1.176091	四 七 七	0.01652637
-1.352183	四 七 三
-0.7781513	四 七 九	0.1305805
-0.9542425	四 七 二	0.01455501
-0.8402991	四 七 五	0.1506112
-1.176091	四 七 八	-0.001403704
-1.051152	四 七 六	-0.0051644
-1.255273	四 七 四	0.01140809
-1.051152	四 七 零	0.01806001
-0.9595714	零 七 </s>
-1.010724	零 七 一	-0.004331168
-1.311754	零 七 七	-0.05338109
-0.9595714	零 七 九	0.02925914
-1.068716	零 七 二	0.02283018
-1.214844	零 七 五
-0.8724211	零 七 八	0.02797543
-0.9138138	零 七 六	0.0178018
-0.9595714	零 七 四	0.1217861
-0.9595714	零 七 零	0.04389928
-1.124939	<s> 三 一	0.02875197
-1.30103	<s> 三 七	-0.008686796
-0.8239087	<s> 三 三	0.2412776
-0.7781513	<s> 三 九	0.3267425
-1.079181	<s> 三 二	0.06498087
-1.079181	<s> 三 五	0.01434631
-0.9652379	<s> 三 八	0.04980014
-0.90309	<s> 三 六	0.1277008
-1.176091	<s> 三 四	0.03946073
-1.079181	<s> 三 零	0.03233916
-1.166331	一 三 </s>
-1.099385	一 三 一	0.002994522
-0.9444827	一 三 七	0.08458558
-0.8653014	一 三 三	0.07436329
-1.342423	一 三 九	-0.04007982
-1.041393	一 三 二	0.0181946
-0.9902402	一 三 五	0.06878335
-0.9902402	一 三 八	0.02415621
-1.041393	一 三 六	0.03407787
-1.166331	一 三 四	-0.0005994551
-0.9902402	一 三 零	0.01933145
-0.9719713	七 三 </s>
-0.8336686	七 三 一	0.07601772
-0.8336686	七 三 七	0.03279992
-1.176091	七 三 三	-0.02506287
-1.09691	七 三 九	-0.006862361
-0.9719713	七 三 二	-0.01136064
-1.09691	七 三 五
-1.39794	七 三 八
-0.8750613	七 三 四	0.02585872
-1.09691	七 三 零	0.01656956
-0.9444827	三 三 </s>
-0.8305393	三 三 一	0.07689225
-1.099385	三 三 七	0.01750135
-1.245513	三 三 三	-0.02506287
-1.041393	三 三 九	-0.0008202754
-0.9902402	三 三 二	-0.006756805
-1.166331	三 三 五	0.01967952
-1.041393	三 三 八	0.01372094
-1.041393	三 三 六	0.0009490401
-1.041393	三 三 四	0.03707995
-1.166331	三 三 零	0.01656956
-0.8239087	九 三 </s>
-0.90309	九 三 一	0.05464391
-1	九 三 七	0.01787278
-1.30103	九 三 三	-0.03793397
-1.425969	九 三 九
-1.20412	九 三 二	-0.01359418
-1.124939	九 三 五	-0.01040225
-0.7891467	九 三 八	0.1219154
-1.30103	九 三 六	-0.02383313
-1.124939	九 三 四	-0.0133166
-0.9488475	九 三 零	0.01979423
-0.9378521	二 三 </s>
-1.113943	二 三 一
-1.113943	二 三 七
-1.046997	二 三 三	-0.006112739
-1.113943	二 三 九	-0.01514068
-1.113943	二 三 二	0.01310257
-1.113943	二 三 五	-0.01374424
-0.9378521	二 三 八	0.02855047
-1.113943	二 三 六	-0.005431201
-0.8129134	二 三 四	0.1284516
-1.193125	二 三 零	0.001364194
-1.079181	五 三 </s>
-1.137173	五 三 一	-0.001465924
-1.137173	五 三 七	-0.001465924
-0.8683279	五 三 三	0.130731
-1.137173	五 三 九	-0.00689986
-1.028029	五 三 二	-0.01236068
-1.079181	五 三 五	-0.01046081
-1.028029	五 三 八	0.05083362
-0.9408786	五 三 六	0.07823873
-1.028029	五 三 四	0.0199955
-1.079181	五 三 零	0.06047566
-1.070038	八 三 </s>
-1.12803	八 三 一	-0.02292731
-0.8939466	八 三 七	0.0800207
-1.12803	八 三 三	-0.01911531
-0.9731278	八 三 九	0.03905241
-0.9731278	八 三 二	0.06750359
-1.12803	八 三 五	0.02493925
-1.194977	八 三 八	-0.01328255
-1.12803	八 三 六
-0.9731278	八 三 四	0.01556314
-0.9731278	八 三 零	0.09087043
-1.135663	六 三 </s>
-0.9138138	六 三 一	0.04332676
-1.068716	六 三 七	-0.01451647
-1.214844	六 三 三
-0.7998705	六 三 九	0.1003356
-1.214844	六 三 二	-0.004307646
-0.9138138	六 三 五	0.08454624
-1.010724	六 三 八
-1.068716	六 三 六	0.01298999
-1.135663	六 三 四	-0.0005994551
-1.214844	六 三 零
-1.109144	四 三 </s>
-1.255273	四 三 一	-0.0282512
-1	四 三 七	0.04185656
-1.477121	四 三 三
-0.9542425	四 三 九	0.07666767
-1	四 三 二	0.06621183
-0.7237936	四 三 五	0.2079724
-1.051152	四 三 八	0.02501544
-1.109144	四 三 六	0.01454802
-1	四 三 四	0.01212855
-1.176091	四 三 零
-1.036984	零 三 </s>
-0.9912261	零 三 一	0.04908314
-0.9120448	零 三 七	0.02559935
-1.036984	零 三 三	-0.01561363
-1.292256	零 三 九	-0.02174582
-0.9498334	零 三 二	0.03279992
-1.389166	零 三 五	-0.03302664
-1.088136	零 三 八	-0.009788081
-0.9498334	零 三 六	0.07869361
-0.9912261	零 三 四	0.02585872
-1.036984	零 三 零	-0.0005285367
-1.023481	<s> 九 一	0.03944649
-0.8315955	<s> 九 七	0.2002449
-1.023481	<s> 九 三	0.01717009
-1.074634	<s> 九 九	-0.02480154
-1.023481	<s> 九 二	-0.003182814
-1.023481	<s> 九 五	-0.009115629
-1.199572	<s> 九 八	-0.04339248
-0.9363309	<s> 九 六	0.02733701
-1.023481	<s> 九 四	0.03565349
-0.9777236	<s> 九 零	0.0939945
-1.083682	一 九 </s>
-0.7563228	一 九 一	0.1096197
-0.9453791	一 九 七	0.03986049
-1.032529	一 九 三	0.05992206
-1.20862	一 九 九	0.02672788
-1.083682	一 九 二	0.04752278
-0.9867718	一 九 五	0.06017351
-1.032529	一 九 八	0.03977361
-1.50965	一 九 六	-0.08287445
-1.032529	一 九 四	0.02847558
-1.141674	一 九 零	-0.02265523
-1.060698	七 九 </s>
-1.019305	七 九 一	0.09596749
-0.9467545	七 九 七	0.1164362
-1.157608	七 九 三	0.01895988
-1.2156	七 九 九	0.04003323
-1.019305	七 九 二	0.1275933
-1.019305	七 九 五	0.06218347
-1.157608	七 九 八	0.01666808
-1.019305	七 九 六	0.02473775
-0.9815166	七 九 四	0.1441617
-0.9467545	七 九 零	0.07718205
-0.9223952	三 九 </s>
-1.11869	三 九 一	0.02527092
-1.060698	三 九 七	0.0341174
-1.361728	三 九 三	-0.007774375
-1.060698	三 九 九	-0.005659953
-0.8176598	三 九 二	0.05642365
-1.060698	三 九 五	0.002879791
-1.060698	三 九 八	0.02824995
-1.060698	三 九 六	0.05573036
-1.009545	三 九 四	0.03088387
-1.11869	三 九 零
-0.7160034	九 九 </s>
-0.9890046	九 九 一	0.01028118
-1.193125	九 九 七	0.005237676
-0.8920946	九 九 三	0.01247206
-0.9890046	九 九 九	0.0469841
-1.113943	九 九 二	-0.05451437
-1.290035	九 九 五
-0.9890046	九 九 八	-0.002540253
-1.591065	九 九 六
-1.046997	九 九 四	-0.0006509125
-1.193125	九 九 零
-1.269513	二 九 </s>
-1.123385	二 九 一	-0.02120377
-1.190332	二 九 七	-0.02845212
-1.01424	二 九 三	0.03657558
-1.01424	二 九 九	0.09704304
-0.968483	二 九 二	0.02147121
-0.7923917	二 九 五	0.194636
-0.9270903	二 九 八	0.08507814
-1.190332	二 九 六	-0.02573158
-1.123385	二 九 四
-1.065393	二 九 零	0.03539189
-0.8239087	五 九 </s>
-1	五 九 一	-0.003867656
-0.8239087	五 九 七	0.05945434
-1	五 九 三	0.005428672
-1.425969	五 九 九	-0.08840695
-1.124939	五 九 二	-0.01325653
-1.20412	五 九 五	-0.0170507
-1	五 九 八	-0.000145413
-1	五 九 六	0.0005987845
-1.057992	五 九 四	-0.0006509125
-1.425969	五 九 零
-0.9542425	八 九 </s>
-0.9956352	八 九 一	0.06418094
-1.092545	八 九 七	-0.007492453
-1.150537	八 九 三	0.02316367
-0.9956352	八 九 九	0.06712236
-0.916454	八 九 二	0.1003053
-1.041393	八 九 五
-1.092545	八 九 八	0.01099095
-0.9542425	八 九 六	0.08680351
-1.041393	八 九 四	0.02240143
-1.393575	八 九 零
-1.109144	六 九 </s>
-0.8750613	六 九 一	0.09165467
-1.255273	六 九 七	-0.01648158
-1.255273	六 九 三
-1.051152	六 九 九	0.007964492
-1.255273	六 九 二
-1.051152	六 九 五	0.02124304
-0.8081145	六 九 八	0.08100863
-0.9542425	六 九 六	0.07761772
-1.109144	六 九 四	-0.008587353
-1	六 九 零	0.06768651
-0.69897	四 九 </s>
-1.176091	四 九 一	-0.02022475
-1.176091	四 九 七
-1.029963	四 九 三	0.05722993
-1.273001	四 九 九	0.007964499
-1.176091	四 九 二
-0.9719713	四 九 五	-0.002797335
-0.9208187	四 九 八	0.002130177
-1.176091	四 九 六	0.002341077
-0.9719713	四 九 四	9.832531e-05
-1.273001	四 九 零	-0.0422372
-1	零 九 </s>
-1.066947	零 九 一	-0.008891728
-1.146128	零 九 七
-1.243038	零 九 三
-1	零 九 九	0.01317728
-0.7311547	零 九 二	0.07816678
-1.066947	零 九 五	-0.006028228
-1	零 九 八	-0.01493226
-1.243038	零 九 六
-1.066947	零 九 四
-1.146128	零 九 零
-1.292256	<s> 二 一	-0.003556266
-0.8772827	<s> 二 七	0.0834099
-0.9498334	<s> 二 三	0.004266739
-0.845098	<s> 二 九	0.1261982
-0.9498334	<s> 二 二	0.05545515
-1.213075	<s> 二 五	-0.002485372
-1.146128	<s> 二 八	-0.02553041
-0.9498334	<s> 二 六	0.05612823
-0.9120448	<s> 二 四	0.06592847
-1.146128	<s> 二 零	0.008125246
-0.7501225	一 二 </s>
-1	一 二 一	0.05010615
-1	一 二 七	0.004672661
-1.109144	一 二 三	0.02614227
-1	一 二 九	0.003405634
-1.352183	一 二 二
-0.9542425	一 二 五	0.06243888
-1.255273	一 二 八	-0.0380007
-0.8750613	一 二 六	0.1483987
-1.477121	一 二 四	-0.03889196
-1.176091	一 二 零	-0.00409285
-1.023481	七 二 </s>
-1.199572	七 二 一
-1.199572	七 二 七	0.00558662
-0.8985423	七 二 三	0.1429751
-1.132626	七 二 九	-0.01744471
-1.023481	七 二 二	0.001527205
-1.074634	七 二 五	0.008632123
-1.132626	七 二 八	0.02030011
-1.074634	七 二 六	0.05298641
-0.8315955	七 二 四	0.09435885
-1.023481	七 二 零	0.02196897
-0.8750613	三 二 </s>
-1.109144	三 二 一	0.005916022
-1.176091	三 二 七	-0.02026867
-1.255273	三 二 三
-1.255273	三 二 九
-1.051152	三 二 二	0.0243549
-1.255273	三 二 五
-1.109144	三 二 八	0.0265628
-0.9128498	三 二 六	0.09544074
-0.8402991	三 二 四	0.1599187
-0.9128498	三 二 零	0.0527419
-0.9956352	九 二 </s>
-1.041393	九 二 一	0.02978338
-1.041393	九 二 七	0.01641107
-1.217484	九 二 三	-0.01988711
-1.041393	九 二 九	0.04420071
-1.041393	九 二 二	0.02787834
-1.041393	九 二 五	0.01891311
-1.296665	九 二 八	-0.02866698
-1.150537	九 二 六
-0.8816918	九 二 四	0.1010431
-0.8816918	九 二 零	0.1321883
-0.9542425	二 二 </s>
-0.908485	二 二 一	0.07213604
-1.130334	二 二 七
-1.005395	二 二 三	0.02678071
-1.063387	二 二 九	0.00826069
-1.607455	二 二 二
-0.9542425	二 二 五	0.03141052
-1.005395	二 二 八	0.02062761
-1.306425	二 二 六
-1.063387	二 二 四	-0.003155187
-0.8670923	二 二 零	0.04983325
-0.6941175	五 二 </s>
-1.171239	五 二 一	0.01967952
-1.171239	五 二 七	-0.003496699
-1.25042	五 二 三	-0.03169344
-1.104292	五 二 九
-1.171239	五 二 二	-0.003496699
-0.9951475	五 二 五	0.03141054
-0.9951475	五 二 八	0.03047358
-0.94939	五 二 六	0.0552725
-1.104292	五 二 四	-0.03276452
-1.171239	五 二 零	-0.01192693
-1.220108	八 二 </s>
-0.9190781	八 二 一	0.07213604
-1.140927	八 二 七	-0.02625903
-1.015988	八 二 三	-0.0122389
-0.9648356	八 二 九	0.03176034
-1.07398	八 二 二	0.01076853
-1.140927	八 二 五	0.006206222
-1.220108	八 二 八	-0.02866698
-0.8776854	八 二 六	0.05885418
-1.07398	八 二 四
-0.9648356	八 二 零	0.03859768
-1.140927	六 二 </s>
-1.07398	六 二 一	0.05862238
-0.8776854	六 二 七	0.06392854
-1.140927	六 二 三	-0.01381297
-1.015988	六 二 九	0.02636088
-1.220108	六 二 二	-0.003068566
-1.140927	六 二 五	-0.02568552
-1.220108	六 二 八
-0.8398969	六 二 六	0.1354597
-0.8776854	六 二 四	0.1080558
-1.140927	六 二 零
-0.7549214	四 二 </s>
-1.113943	四 二 一	0.03274088
-1.113943	四 二 七	-0.03622804
-1.113943	四 二 九	-0.01873633
-0.845098	四 二 二	0.1176377
-0.8798602	四 二 五	0.1883653
-0.8798602	四 二 八	0.1081306
-1.18089	四 二 六	-0.01815532
-1.260071	四 二 四
-1.260071	四 二 零	-0.03169344
-1.049218	零 二 </s>
-0.9352747	零 二 一	0.1320367
-1.007825	零 二 七	0.0250348
-1.094975	零 二 三	0.01326606
-1.007825	零 二 九	0.02383847
-1.20412	零 二 二	-0.001246247
-0.9352747	零 二 五	0.06633066
-0.90309	零 二 八	0.08590257
-1.007825	零 二 六	0.1623948
-1.350248	零 二 四	-0.02416649
-1.146128	零 二 零	0.01022755
-0.9822713	<s> 五 一	0.07505403
-1.079181	<s> 五 七	-0.005608313
-0.90309	<s> 五 三	0.1721904
-1.137173	<s> 五 九	-0.006963331
-1.20412	<s> 五 二	-0.03702041
-0.9408786	<s> 五 五	0.04611133
-1.079181	<s> 五 八	0.0006297827
-0.9408786	<s> 五 六	0.1714477
-0.8683279	<s> 五 四	0.05473692
-1.028029	<s> 五 零	0.03194675
-1.051152	一 五 </s>
-1.255273	一 五 一	0.007121816
-1	一 五 七	0.03463588
-0.8750613	一 五 三	0.06096093
-1.255273	一 五 九
-1.109144	一 五 二	0.05862238
-1.051152	一 五 五	-0.02387454
-0.7781513	一 五 八	0.1911291
-1.051152	一 五 六	0.002237767
-1.176091	一 五 四	-0.02220186
-1.109144	一 五 零	0.0355178
-1.181844	七 五 </s>
-1.579784	七 五 一
-0.9777236	七 五 七	9.984151e-05
-0.9265711	七 五 三	0.002312385
-1.181844	七 五 九	-0.02069806
-0.9777236	七 五 二	0.05780284
-0.9777236	七 五 五	0.07758588
-1.035716	七 五 八	-0.01745403
-1.403692	七 五 六
-0.7668703	七 五 四	0.06185134
-0.9777236	七 五 零	0.0156754
-0.94939	三 五 </s>
-1.104292	三 五 一	0.03992674
-0.803262	三 五 七	0.08275227
-1.104292	三 五 三	-0.002595432
-1.0463	三 五 九	0.04599382
-1.104292	三 五 二	0.005354512
-0.94939	三 五 五	0.06271791
-1.0463	三 五 八	0.01518851
-0.94939	三 五 六	-0.01163681
-1.104292	三 五 零	-0.02107884
-0.968483	九 五 </s>
-1.01424	九 五 一	0.0552702
-1.123385	九 五 七	-0.01124398
-1.269513	九 五 三
-1.123385	九 五 九	0.0265628
-1.190332	九 五 二	-0.01907306
-0.968483	九 五 五	0.1151214
-1.01424	九 五 八	0.06327739
-1.01424	九 五 六	0.02868374
-1.01424	九 五 四	0.01597861
-0.8893017	九 五 零	0.09842113
-0.8545396	二 五 </s>
-1.01424	二 五 一	0.03926117
-1.01424	二 五 七	0.04728472
-0.968483	二 五 三	0.01079409
-1.366423	二 五 九
-1.065393	二 五 二	-0.01545804
-1.190332	二 五 五	0.01229757
-0.8893017	二 五 八	0.1050186
-0.9270903	二 五 六	0.04177178
-1.01424	二 五 四	-0.415707
-1.667453	二 五 零
-0.845098	五 五 </s>
-1.18089	五 五 一	-0.03148136
-1.260071	五 五 七
-1.004799	五 五 三	-0.006051205
-0.9176487	五 五 九	0.05072232
-0.8798602	五 五 二	0.08104488
-1.260071	五 五 五	-0.005041253
-1.055951	五 五 八
-0.9176487	五 五 六	0.07768433
-1.356981	五 五 四	-0.04482625
-1.113943	五 五 零	-0.008011088
-0.8223549	八 五 </s>
-1.269513	八 五 一
-1.065393	八 五 七	0.03060385
-1.123385	八 五 三	-0.01493226
-1.01424	八 五 九	0.03802022
-1.269513	八 五 二
-1.01424	八 五 五	0.05202388
-1.123385	八 五 八	0.004201591
-1.065393	八 五 六	0.01484206
-1.01424	八 五 四	0.02139521
-0.8893017	八 五 零	0.1223333
-1.01424	六 五 </s>
-1.269513	六 五 一	-0.002164714
-1.01424	六 五 七	0.02940454
-1.065393	六 五 三	-0.00798139
-1.065393	六 五 九	0.005428672
-0.7923917	六 五 二	0.1722472
-1.01424	六 五 五	0.07843473
-1.269513	六 五 八	-0.005974807
-1.366423	六 五 六	-0.0423857
-1.065393	六 五 四	0.005170912
-0.8545396	六 五 零	0.1207625
-1.0894	四 五 </s>
-1.031408	四 五 一	-0.03040541
-1.031408	四 五 七	9.984151e-05
-1.0894	四 五 三	0.008834042
-0.980256	四 五 九	0.05351756
-0.980256	四 五 二	0.08607363
-1.156347	四 五 五
-0.8931057	四 五 八	0.05507632
-1.031408	四 五 六	0.05834728
-1.0894	四 五 四	-0.001180865
-1.156347	四 五 零	0.01410023
-0.9270903	零 五 </s>
-0.9270903	零 五 一	0.1441245
-1.269513	零 五 七
-0.968483	零 五 三	0.0127257
-1.123385	零 五 九	0.01938421
-1.190332	零 五 二	-0.002886303
-1.01424	零 五 五	0.01654377
-0.968483	零 五 八	0.02852285
-1.491362	零 五 六
-0.8893017	零 五 四	0.09367469
-1.01424	零 五 零	-0.008347847
-1.079181	<s> 八 一	0.02920057
-1.380211	<s> 八 七
-0.8361432	<s> 八 三	0.1077778
-1.028029	<s> 八 九	0.01264159
-1.20412	<s> 八 二	-0.004802845
-0.8683279	<s> 八 五	0.1058253
-1.283301	<s> 八 八
-0.9408786	<s> 八 六	0.07061584
-0.90309	<s> 八 四	0.1376912
-0.8683279	<s> 八 零	0.135996
-1.0086	一 八 </s>
-1.163502	一 八 一
-1.054358	一 八 七	0.06638811
-0.8325089	一 八 三	0.1282175
-0.8624721	一 八 九	0.08817756
-0.9672075	一 八 二	0.03330028
-1.0086	一 八 五	0.01553667
-1.30963	一 八 八	-0.01462391
-1.0086	一 八 六	0.01584802
-1.230449	一 八 四	0.02550907
-1.30963	一 八 零	-0.007677555
-0.9890046	七 八 </s>
-0.9378521	七 八 一	-0.004249923
-1.046997	七 八 七	0.01556741
-0.9378521	七 八 三	0.01319018
-1.046997	七 八 九	-0.0006319135
-0.9378521	七 八 二	-0.01276299
-1.290035	七 八 五
-1.046997	七 八 八	0.0053735
-0.9890046	七 八 六	0.02636088
-1.193125	七 八 四	-0.02015553
-1.193125	七 八 零	-0.01075089
-1.274158	三 八 </s>
-0.9731278	三 八 一	0.04958133
-0.9731278	三 八 七	0.006095126
-1.194977	三 八 三
-0.9317352	三 八 九	0.04045016
-1.274158	三 八 二
-1.12803	三 八 五	0.02444745
-0.9317352	三 八 八	0.08923411
-0.9731278	三 八 六	0.02066498
-1.018885	三 八 四	0.06501443
-0.9731278	三 八 零	0.0268201
-0.90309	九 八 </s>
-1.079181	九 八 一	0.02931988
-1.20412	九 八 七	-0.02502675
-1.20412	九 八 三
-1.079181	九 八 九	-0.003735013
-0.9822713	九 八 二	0.05423434
-0.9408786	九 八 五	0.07829805
-1.028029	九 八 八	0.04325157
-1.079181	九 八 六	-0.01136512
-0.9822713	九 八 四	0.01296331
-1.079181	九 八 零	-0.006024588
-1.146128	二 八 </s>
-1.225309	二 八 一
-0.8103359	二 八 七	0.1326237
-1.021189	二 八 三	-0.004184201
-0.8828866	二 八 九	0.05484562
-1.079181	二 八 二	0.009346824
-1.225309	二 八 五
-1.079181	二 八 八	0.0267406
-1.079181	二 八 六	-0.003283337
-0.9700368	二 八 四	-0.02904564
-1.146128	二 八 零	0.004128776
-0.9586073	五 八 </s>
-1.221849	五 八 一	-0.04001273
-0.9208187	五 八 七	0.07719964
-1.09691	五 八 三	0.0310058
-1.30103	五 八 九	-0.0343494
-1.221849	五 八 二	-0.02633613
-0.8860567	五 八 五	0.09113176
-1.09691	五 八 八	0.01987696
-0.8860567	五 八 六	0.1213075
-1.045758	五 八 四	0.0772584
-1.045758	五 八 零	0.07752448
-1.20412	八 八 </s>
-0.90309	八 八 一	0.04584301
-0.9488475	八 八 七	0.003719218
-1.425969	八 八 三
-0.8616973	八 八 九	0.05893356
-1	八 八 二	0.0137802
-1.124939	八 八 五	0.01620664
-1.20412	八 八 八	-0.04188381
-0.90309	八 八 六	0.01659537
-0.9488475	八 八 四	0.04373451
-1.30103	八 八 零	-0.0850148
-1.198657	六 八 </s>
-1.052529	六 八 一
-0.9945371	六 八 七	0.02915379
-0.8562344	六 八 三	0.03642622
-1.052529	六 八 九	-0.001172218
-1.198657	六 八 二	-0.02819105
-0.8562344	六 八 五	0.02719661
-0.9433846	六 八 八	0.06990797
-1.420506	六 八 六
-1.119476	六 八 四
-1.052529	六 八 零	0.01883146
-0.9149892	四 八 </s>
-1.267172	四 八 一
-1.09108	四 八 七	-0.04462801
-0.9661418	四 八 三	0.03964335
-0.9149892	四 八 九	0.03960743
-0.9661418	四 八 二	0.01474459
-1.09108	四 八 五	0.008690689
-0.9149892	四 八 八	0.001985036
-1.170262	四 八 六	-0.03749185
-1.024134	四 八 四	0.010887
-1.39211	四 八 零
-0.8354467	零 八 </s>
-0.8702087	零 八 一	0.09304392
-1.104292	零 八 七	0.01500589
-1.171239	零 八 三	-0.0191121
-1.104292	零 八 九	0.005164646
-1.0463	零 八 二	0.03494798
-1.104292	零 八 五	-0.004954241
-1.25042	零 八 八
-1.0463	零 八 六	0.008632138
-1.104292	零 八 四	0.01850516
-0.9951475	零 八 零	0.07752448
-1.12803	<s> 六 一	0.01884867
-0.7690079	<s> 六 七	0.1086934
-1.070038	<s> 六 三	0.05214051
-1.018885	<s> 六 九	0.0377233
-1.12803	<s> 六 二	0.007788792
-0.8939466	<s> 六 五	0.1109416
-1.070038	<s> 六 八	0.01934822
-1.070038	<s> 六 六	-0.002119988
-1.194977	<s> 六 四	-0.0173249
-0.8939466	<s> 六 零	0.05634072
-0.7533277	一 六 </s>
-0.9294189	一 六 一	-0.01178645
-1.084321	一 六 七	0.01260194
-0.9751764	一 六 三	0.06845326
-1.026329	一 六 九	0.06327297
-1.230449	一 六 二	-0.004709959
-1.084321	一 六 五	-0.02240812
-1.230449	一 六 八
-1.151268	一 六 六	0.07664134
-1.151268	一 六 四
-1.084321	一 六 零	0.005271122
-1.051152	七 六 </s>
-0.9128498	七 六 一	0.04894068
-1.109144	七 六 七	-0.01919468
-1.176091	七 六 三	-0.01006708
-1.255273	七 六 九	-0.06576874
-0.9542425	七 六 二	0.03925717
-0.9128498	七 六 五	0.04518411
-1.109144	七 六 八	-3.966317e-05
-1.109144	七 六 六	0.02081047
-1.176091	七 六 四	-0.03530044
-0.8750613	七 六 零	0.09058617
-0.8828866	三 六 </s>
-0.8828866	三 六 一	0.1399307
-1.225309	三 六 七	0.006565385
-1.079181	三 六 三
-1.021189	三 六 九	0.04337814
-1.623249	三 六 二
-1.079181	三 六 五	0.02997994
-0.9242793	三 六 八	0.07265484
-0.9700368	三 六 六	0.01717009
-1.225309	三 六 四
-0.9700368	三 六 零	0.03112499
-0.7836837	九 六 </s>
-1.119476	九 六 一	0.01074374
-1.119476	九 六 七	0.01470891
-0.8976271	九 六 三	0.01023095
-0.9945371	九 六 九	0.005428672
-0.9945371	九 六 二	0.02749093
-0.9945371	九 六 五	0.03859534
-1.295567	九 六 八	-0.03842081
-1.295567	九 六 六
-1.052529	九 六 四	0.02486301
-1.198657	九 六 零	-0.002786472
-1.109747	二 六 </s>
-0.7575647	二 六 一	0.49974
-1.234686	二 六 七	-0.03345992
-1.012837	二 六 三	0.02455223
-0.8988939	二 六 九	0.1405613
-1.234686	二 六 二	0.01317053
-1.012837	二 六 五	0.03847637
-1.012837	二 六 八	0.0482955
-1.109747	二 六 六	0.08526994
-1.012837	二 六 四	0.02239977
-1.410777	二 六 零
-1.031408	五 六 </s>
-1.633469	五 六 一	-0.1460465
-1.235528	五 六 七	-0.04908989
-1.332438	五 六 三
-0.980256	五 六 九	-0.0004939698
-1.031408	五 六 二	-0.01696981
-0.8205551	五 六 五	0.2390366
-0.980256	五 六 八	0.03778866
-1.156347	五 六 六	0.05578408
-0.8553172	五 六 四	0.02215573
-0.9344984	五 六 零	0.04312208
-1.01424	八 六 </s>
-1.01424	八 六 一	0.05196374
-1.190332	八 六 七	-0.0008016266
-0.968483	八 六 三	0.09122677
-1.01424	八 六 九	0.02847558
-1.01424	八 六 二	0.0326964
-1.190332	八 六 五	0.01074374
-1.190332	八 六 八	-0.02758373
-1.065393	八 六 六	0.05053863
-0.9270903	八 六 四	0.1065679
-0.968483	八 六 零	-0.006553315
-0.6446123	六 六 </s>
-1.029963	六 六 一	-0.008478984
-1.176091	六 六 七
-1.39794	六 六 三
-1.029963	六 六 九	-0.01229216
-0.8750613	六 六 二	0.05328199
-0.9719713	六 六 五	0.03881253
-1.176091	六 六 八
-1.273001	六 六 六	-0.0422372
-1.09691	六 六 四	-0.02285738
-1.39794	六 六 零
-1.088136	四 六 </s>
-1.292256	四 六 一	-0.03379953
-0.9120448	四 六 七	0.06882733
-1.036984	四 六 三	0.0004561767
-1.146128	四 六 九	0.02335767
-0.9498334	四 六 二	0.03542406
-1.146128	四 六 五	0.01898456
-1.088136	四 六 八	0.002148092
-0.9912261	四 六 六	0.1033345
-0.9912261	四 六 四	0.06595324
-0.9498334	四 六 零	0.06745922
-0.9481683	零 六 </s>
-1.00616	零 六 一	0.01277452
-0.8970158	零 六 七	0.03990371
-1.073107	零 六 三	-0.00568381
-1.00616	零 六 九	0.02335765
-1.00616	零 六 二	0.01533719
-1.249198	零 六 五
-1.00616	零 六 八	-0.01801303
-1.152288	零 六 六
-1.073107	零 六 四	-0.01172101
-1.152288	零 六 零	-0.03297623
-0.94939	<s> 四 一	0.02361243
-0.94939	<s> 四 七	0.117917
-0.9951475	<s> 四 三	0.07355396
-0.9951475	<s> 四 九	0.03360672
-1.25042	<s> 四 二	-0.005041253
-0.9951475	<s> 四 五	0.002657369
-1.104292	<s> 四 八
-0.9079973	<s> 四 六	0.1057689
-1.0463	<s> 四 四	0.04980171
-0.94939	<s> 四 零	0.02609628
-1.060698	一 四 </s>
-1.185637	一 四 一	-0.02129175
-1.11869	一 四 七	0.06347489
-0.9223952	一 四 三	0.1049815
-1.361728	一 四 九	-0.06098664
-1.009545	一 四 二	0.1342925
-0.9223952	一 四 五	0.04201355
-0.8846066	一 四 八	0.07687199
-1.060698	一 四 六	0.01639881
-0.9637879	一 四 四	0.06419053
-1.185637	一 四 零	-0.01843705
-0.7403627	七 四 </s>
-0.7403627	七 四 一	0.1735976
-0.8653014	七 四 七	0.06621182
-1.245513	七 四 三	-0.02458956
-1.166331	七 四 九	0.04187923
-1.245513	七 四 二	-0.02475769
-1.041393	七 四 五	-0.007581227
-1.166331	七 四 八	0.001669142
-1.099385	七 四 六	-0.04876975
-1.342423	七 四 四
-1.467361	七 四 零
-0.9731278	三 四 </s>
-0.9731278	三 四 一	0.06930958
-1.12803	三 四 七	-0.005979743
-1.018885	三 四 三	0.07355396
-1.371068	三 四 九
-0.9317352	三 四 二	0.2448187
-1.070038	三 四 五	0.0236341
-1.496007	三 四 八
-0.7970366	三 四 六	0.1659233
-0.8939466	三 四 四	0.03836563
-1.274158	三 四 零	-0.03649233
-1	九 四 </s>
-1.051152	九 四 一	0.03911501
-0.8750613	九 四 七	0.1294937
-1.109144	九 四 三	-0.0175564
-1	九 四 九	0.02970067
-1	九 四 二	0.02894936
-1.176091	九 四 五	0.00478797
-1.176091	九 四 八
-1	九 四 六	0.01031963
-1.109144	九 四 四
-1.051152	九 四 零	-0.002119988
-0.7826517	二 四 </s>
-1.287802	二 四 一
-1.20862	二 四 七	-0.02982564
-1.50965	二 四 三
-1.141674	二 四 九	0.01325733
-0.8728284	二 四 二	0.1618922
-1.032529	二 四 五	0.02114078
-1.032529	二 四 八	0.03801119
-1.083682	二 四 六
-0.8728284	二 四 四	0.1581575
-1.083682	二 四 零	0.04990901
-1.004799	五 四 </s>
-1.004799	五 四 一	0.05686884
-1.055951	五 四 七	0.03060385
-0.8798602	五 四 三	0.1337698
-1.004799	五 四 九	0.09889505
-1.004799	五 四 二	0.03943476
-1.113943	五 四 五	-0.01499994
-1.055951	五 四 八	0.009358961
-1.055951	五 四 六	0.01959115
-1.356981	五 四 四
-1.055951	五 四 零	0.02081193
-0.9079973	八 四 </s>
-0.7732987	八 四 一	0.1595979
-1.34733	八 四 七
-0.9951475	八 四 三	0.01641107
-1.25042	八 四 九
-1.171239	八 四 二	-0.009395637
-1.104292	八 四 五	-0.01531126
-1.34733	八 四 八
-0.8702087	八 四 六	0.05327736
-1.104292	八 四 四	0.02483641
-0.9951475	八 四 零	0.04384074
-0.9294189	六 四 </s>
-1.230449	六 四 一
-1.026329	六 四 七	-0.01739241
-0.8502377	六 四 三	0.2109985
-1.327359	六 四 九
-0.8880262	六 四 二	0.1174672
-0.9294189	六 四 五	0.0001016036
-1.084321	六 四 八
-1.230449	六 四 六
-1.151268	六 四 四	0.02787834
-1.084321	六 四 零	-0.02265523
-1.063387	四 四 </s>
-0.704365	四 四 一	0.1724006
-1.005395	四 四 七	0.02198183
-1.209515	四 四 三	0.0244641
-0.908485	四 四 九	0.07215945
-1.063387	四 四 二	0.008693475
-1.306425	四 四 五
-1.005395	四 四 八	-0.0008876771
-1.209515	四 四 六	-0.02461949
-1.209515	四 四 四
-1.130334	四 四 零	-0.01209687
-0.9265711	零 四 </s>
-1.102662	零 四 一
-0.9777236	零 四 七	0.05050781
-0.9777236	零 四 三	0.05059083
-0.9777236	零 四 九	0.06823658
-1.102662	零 四 二	0.02181495
-1.035716	零 四 五	-0.004713099
-1.278754	零 四 八
-0.8808136	零 四 六	0.1059134
-1.181844	零 四 四	-0.009228878
-1.181844	零 四 零
-0.9579387	<s> 零 一	0.07279464
-0.9927008	<s> 零 七	0.07630777
-0.9927008	<s> 零 三	0.05680998
-1.168792	<s> 零 九	0.05755898
-0.867762	<s> 零 二	0.2377055
-0.9927008	<s> 零 五	0.1102491
-1.071882	<s> 零 八	0.06730696
-1.11764	<s> 零 六	0.03555001
-1.030489	<s> 零 四	0.06999001
-0.925754	<s> 零 零	0.09088011
-0.90309	一 零 </s>
-1.467361	一 零 一
-1.166331	一 零 七	-0.004158229
-0.90309	一 零 三	0.06533103
-1.041393	一 零 九	0.04430513
-0.8305393	一 零 二	0.05207011
-1.099385	一 零 五
-1.342423	一 零 八
-0.9444827	一 零 六	0.02137481
-0.9902402	一 零 四	0.01574384
-1.166331	一 零 零
-0.9902402	七 零 </s>
-1.166331	七 零 一	-0.001620688
-1.041393	七 零 七	0.01678555
-0.90309	七 零 三	0.05452444
-0.9902402	七 零 九	0.01717009
-1.099385	七 零 二	-0.00151176
-1.166331	七 零 五	1.987442e-05
-0.9444827	七 零 八	0.09727018
-1.166331	七 零 六	-0.009570837
-0.8653014	七 零 四	-0.2382936
-1.342423	七 零 零	-0.03438004
-0.9190781	三 零 </s>
-0.8398969	三 零 一	0.1367753
-1.220108	三 零 七	-0.01596456
-0.9190781	三 零 三	0.00569243
-1.220108	三 零 九	-0.02069806
-0.8398969	三 零 二	0.04634442
-1.140927	三 零 五	-0.005244367
-1.07398	三 零 八	0.005043551
-1.317018	三 零 六
-1.140927	三 零 四
-1.140927	三 零 零	-0.005022276
-0.9719713	九 零 </s>
-1.029963	九 零 一
-1.09691	九 零 七	0.001832139
-1.029963	九 零 三	-0.005041033
-1.029963	九 零 九	-0.02412991
-0.9208187	九 零 二	-0.01651663
-1.39794	九 零 五	-0.05718076
-0.79588	九 零 八	0.1393092
-1.029963	九 零 六
-1.176091	九 零 四
-1.273001	九 零 零
-0.9176487	二 零 </s>
-1.113943	二 零 一
-0.9590414	二 零 七	0.02452347
-1.004799	二 零 三	0.02938968
-1.356981	二 零 九
-0.9176487	二 零 二	0.1000918
-0.9590414	二 零 五	0.03847636
-0.9590414	二 零 八	0.02591429
-1.113943	二 零 六
-1.004799	二 零 四	-0.01088435
-1.48192	二 零 零	-0.07339977
-0.9637879	五 零 </s>
-1.009545	五 零 一	0.02616157
-1.361728	五 零 七	-0.03429856
-1.11869	五 零 三	-0.004776955
-1.11869	五 零 九	-0.0208543
-1.009545	五 零 二	0.0785355
-0.9223952	五 零 五	0.130553
-0.8498445	五 零 八	0.1483442
-1.185637	五 零 六	-0.02179518
-1.11869	五 零 四	0.008330386
-1.009545	五 零 零	0.03466912
-0.8184459	八 零 </s>
-1.420506	八 零 一
-1.119476	八 零 七
-1.295567	八 零 三	-0.04780598
-1.119476	八 零 九	0.02034918
-0.9433846	八 零 二	0.00622648
-0.8184459	八 零 五	0.05650123
-0.8976271	八 零 八	0.01007809
-1.198657	八 零 六	-0.03739709
-1.295567	八 零 四
-0.9945371	八 零 零	0.04822566
-1.099385	六 零 </s>
-0.90309	六 零 一	0.06080328
-0.9902402	六 零 七	0.0665843
-0.90309	六 零 三	0.06086462
-1.166331	六 零 九
-0.9444827	六 零 二	0.02117102
-0.8653014	六 零 五	0.05360674
-1.342423	六 零 八	-0.01621314
-1.245513	六 零 六
-1.245513	六 零 四	-0.03074
-1.041393	六 零 零	0.01008069
-1.029963	四 零 </s>
-0.8750613	四 零 一	0.05743621
-1.09691	四 零 七	0.007906288
-0.79588	四 零 三	0.05576327
-1.09691	四 零 九	0.03457396
-0.9719713	四 零 二	0.01391401
-1.029963	四 零 五	-0.03298298
-1.176091	四 零 八
-1.273001	四 零 六	-0.05307513
-1.273001	四 零 四
-1.09691	四 零 零	-0.01740116
-0.7171948	零 零 </s>
-1.085172	零 零 一	-0.05007149
-0.9090803	零 零 七	0.03912764
-1.261263	零 零 三
-1.261263	零 零 九	-0.04587148
-0.9602329	零 零 二	0.02389824
-1.018225	零 零 五	0.0127745
-1.261263	零 零 八	-0.04388457
-0.9602329	零 零 六	0.01853785
-1.261263	零 零 四	-0.049074
-1.164353	零 零 零	0.0260153

\4-grams:
-1.28637	<s> 一 一 九
-1.295215	<s> 一 一 五
-1.295215	<s> 一 一 六
-1.28637	<s> 一 一 零
-0.9272385	一 一 一 三
-1.149087	七 一 一 二
-1.096798	七 一 一 六
-1.19048	三 一 一 一
-1.19048	三 一 一 九
-1.19048	三 一 一 二
-1.19048	三 一 一 八
-1.300918	九 一 一 </s>
-1.353207	九 一 一 二
-1.353207	九 一 一 八
-1.300918	九 一 一 四
-1.353207	九 一 一 零
-1.10333	二 一 一 </s>
-0.9209072	二 一 一 九
-1.10333	二 一 一 零
-0.8480572	五 一 一 </s>
-1.149087	八 一 一 </s>
-1.149087	八 一 一 五
-1.096798	八 一 一 四
-1.149087	零 一 一 八
-1.149087	零 一 一 零
-1.10333	<s> 七 一 一
-1.10333	<s> 七 一 五
-1.10333	<s> 七 一 八
-0.9418959	一 七 一 </s>
-1.052177	七 七 一 六
-1.052177	三 七 一 九
-0.9272385	九 七 一 八
-1.096798	二 七 一 九
-1.052177	五 七 一 七
-1.052177	五 七 一 二
-0.9998878	八 七 一 一
-1.052177	八 七 一 五
-1.10333	六 七 一 七
-1.10333	六 七 一 八
-1.10333	六 七 一 六
-0.9941853	四 七 一 </s>
-0.9941853	四 七 一 七
-0.9941853	四 七 一 四
-1.052177	零 七 一 二
-1.05104	<s> 三 一 一
-1.10333	<s> 三 一 零
-0.9941853	一 三 一 一
-0.9418959	一 三 一 零
-1.138191	七 三 一 九
-1.138191	七 三 一 二
-1.19048	七 三 一 五
-1.263031	三 三 一 一
-1.263031	三 三 一 二
-1.210741	三 三 一 八
-1.096798	九 三 一 二
-1.140242	九 三 一 五
-0.9941853	五 三 一 </s>
-0.9941853	五 三 一 一
-0.9941853	八 三 一 六
-1.096798	六 三 一 </s>
-1.149087	六 三 一 五
-0.8480572	四 三 一 四
-1.149087	零 三 一 七
-1.149087	零 三 一 三
-1.096798	零 三 一 五
-1.149087	零 三 一 八
-1.05104	<s> 九 一 一
-1.10333	<s> 九 一 七
-1.379536	一 九 一 三
-1.379536	一 九 一 九
-1.327247	一 九 一 二
-1.37069	一 九 一 五
-1.379536	一 九 一 四
-1.19048	七 九 一 一
-1.19048	七 九 一 七
-1.138191	七 九 一 零
-0.9418959	三 九 一 一
-0.9941853	三 九 一 六
-1.052177	九 九 一 九
-0.9418959	二 九 一 </s>
-1.052177	五 九 一 </s>
-1.052177	五 九 一 六
-1.096798	八 九 一 九
-1.149087	八 九 一 八
-1.149087	八 九 一 四
-1.149087	八 九 一 零
-1.228269	六 九 一 一
-1.175979	六 九 一 八
-1.228269	六 九 一 六
-0.7957678	四 九 一 零
-0.9272385	零 九 一 六
-0.8480572	<s> 二 一 五
-1.05104	一 二 一 二
-1.10333	一 二 一 八
-0.9941853	三 二 一 八
-0.9941853	三 二 一 四
-1.10333	九 二 一 一
-1.10333	九 二 一 三
-1.096798	二 二 一 </s>
-1.149087	二 二 一 三
-0.9272385	五 二 一 八
-1.096798	八 二 一 </s>
-1.149087	八 二 一 三
-0.9941853	六 二 一 </s>
-0.9941853	六 二 一 五
-0.9853395	四 二 一 </s>
-1.210741	零 二 一 二
-1.210741	零 二 一 五
-1.263031	零 二 一 八
-1.149087	<s> 五 一 六
-1.096798	<s> 五 一 四
-0.8480572	一 五 一 二
-0.9941853	三 五 一 七
-0.9941853	三 五 一 二
-1.094484	九 五 一 三
-1.10333	九 五 一 四
-1.10333	二 五 一 七
-1.10333	二 五 一 九
-1.05104	二 五 一 六
-0.9272385	五 五 一 零
-0.7957678	六 五 一 四
-0.9998878	四 五 一 </s>
-1.052177	四 五 一 八
-1.19048	零 五 一 一
-1.19048	零 五 一 七
-1.19048	零 五 一 二
-1.19048	零 五 一 六
-1.052177	<s> 八 一 一
-1.043332	<s> 八 一 七
-1.10333	七 八 一 八
-1.096798	三 八 一 </s>
-1.096798	三 八 一 三
-1.149087	三 八 一 二
-1.052177	九 八 一 一
-1.052177	九 八 一 三
-1.052177	九 八 一 零
-0.9272385	五 八 一 九
-0.9272385	五 八 一 四
-1.096798	八 八 一 七
-1.096798	八 八 一 三
-1.228269	零 八 一 一
-1.228269	零 八 一 七
-1.228269	零 八 一 六
-1.228269	零 八 一 零
-0.9941853	<s> 六 一 二
-0.9941853	<s> 六 一 六
-1.149087	一 六 一 一
-1.149087	一 六 一 三
-1.138191	七 六 一 </s>
-1.138191	七 六 一 六
-1.19048	三 六 一 </s>
-1.19048	三 六 一 九
-1.19048	三 六 一 二
-1.19048	三 六 一 六
-0.9272385	九 六 一 六
-1.40436	二 六 一 七
-1.40436	二 六 一 三
-1.40436	二 六 一 九
-1.35207	二 六 一 五
-1.40436	二 六 一 八
-1.40436	二 六 一 六
-1.40436	二 六 一 四
-1.40436	二 六 一 零
-0.4501172	五 六 一 八
-1.10333	八 六 一 九
-1.10333	八 六 一 二
-1.10333	八 六 一 四
-0.9941853	六 六 一 </s>
-0.9941853	六 六 一 七
-0.9941853	六 六 一 二
-0.8480572	四 六 一 九
-0.8480572	四 六 一 四
-0.9941853	零 六 一 三
-0.9941853	零 六 一 九
-1.140242	<s> 四 一 八
-1.149087	<s> 四 一 四
-0.9272385	一 四 一 三
-0.9272385	一 四 一 六
-1.300918	七 四 一 </s>
-1.344362	七 四 一 七
-1.353207	七 四 一 八
-1.353207	七 四 一 四
-1.149087	三 四 一 </s>
-1.140242	三 四 一 九
-1.149087	三 四 一 零
-0.9998878	九 四 一 七
-1.052177	九 四 一 三
-1.052177	九 四 一 四
-1.10333	五 四 一 </s>
-1.10333	五 四 一 九
-1.10333	五 四 一 零
-1.272889	八 四 一 </s>
-1.316333	八 四 一 七
-1.325179	八 四 一 六
-1.325179	八 四 一 四
-1.300918	四 四 一 </s>
-1.353207	四 四 一 一
-1.353207	四 四 一 九
-1.353207	四 四 一 八
-1.344362	四 四 一 六
-1.263031	<s> 零 一 七
-1.263031	<s> 零 一 三
-1.263031	<s> 零 一 九
-1.210741	<s> 零 一 零
-0.9272385	七 零 一 一
-1.175979	三 零 一 </s>
-1.228269	三 零 一 一
-1.228269	三 零 一 九
-1.228269	三 零 一 五
-1.10333	五 零 一 </s>
-1.10333	五 零 一 四
-1.19048	六 零 一 一
-1.19048	六 零 一 九
-1.19048	六 零 一 二
-1.149087	四 零 一 二
-1.149087	四 零 一 五
-1.149087	四 零 一 零
-0.9272385	零 零 一 一
-0.9272385	零 零 一 八
-0.9272385	零 零 一 四
-1.263031	<s> 一 七 七
-1.263031	<s> 一 七 三
-1.263031	<s> 一 七 八
-1.263031	<s> 一 七 六
-1.210741	<s> 一 七 零
-0.9941853	一 一 七 一
-0.9418959	一 一 七 三
-1.181634	七 一 七 </s>
-1.19048	七 一 七 二
-0.9941853	三 一 七 </s>
-0.9941853	三 一 七 零
-1.052177	九 一 七 四
-1.10333	五 一 七 一
-1.10333	五 一 七 二
-1.10333	五 一 七 零
-1.149087	八 一 七 六
-1.149087	八 一 七 零
-1.05104	六 一 七 </s>
-1.10333	六 一 七 三
-1.10333	六 一 七 九
-1.242926	四 一 七 </s>
-1.28637	四 一 七 九
-1.242926	四 一 七 二
-1.242926	四 一 七 五
-0.9941853	零 一 七 三
-0.8480572	<s> 七 七 九
-0.8480572	一 七 七 七
-1.052177	三 七 七 二
-1.052177	三 七 七 六
-1.242926	九 七 七 </s>
-1.242926	九 七 七 一
-1.242926	九 七 七 三
-1.295215	九 七 七 零
-1.19048	二 七 七 </s>
-1.19048	二 七 七 七
-1.052177	五 七 七 九
-1.10333	八 七 七 二
-1.10333	八 七 七 六
-1.05104	六 七 七 </s>
-1.10333	六 七 七 六
-0.9272385	四 七 七 </s>
-0.7511472	零 七 七 五
-0.9272385	<s> 三 七 九
-0.9272385	<s> 三 七 零
-1.149087	一 三 七 三
-1.149087	一 三 七 九
-1.149087	一 三 七 六
-1.149087	一 三 七 零
-1.138191	七 三 七 </s>
-1.19048	七 三 七 八
-0.9941853	三 三 七 九
-1.052177	九 三 七 </s>
-1.052177	九 三 七 二
-0.9941853	五 三 七 </s>
-0.9941853	五 三 七 七
-1.228269	八 三 七 七
-1.228269	八 三 七 九
-1.228269	八 三 七 二
-0.9418959	六 三 七 八
-1.05104	四 三 七 三
-1.10333	四 三 七 九
-1.10333	四 三 七 五
-1.228269	零 三 七 七
-1.228269	零 三 七 八
-1.175979	零 三 七 四
-1.295215	<s> 九 七 七
-1.242926	<s> 九 七 三
-1.295215	<s> 九 七 五
-1.295215	<s> 九 七 八
-1.295215	<s> 九 七 四
-1.295215	<s> 九 七 零
-1.19048	一 九 七 </s>
-1.19048	一 九 七 一
-1.138191	一 九 七 三
-1.080608	七 九 七 七
-1.263031	七 九 七 九
-1.263031	七 九 七 八
-1.263031	七 九 七 六
-0.9998878	三 九 七 七
-1.052177	三 九 七 四
-0.8480572	九 九 七 七
-0.9272385	二 九 七 九
-0.9272385	二 九 七 二
-1.228269	五 九 七 </s>
-1.228269	五 九 七 九
-1.228269	五 九 七 六
-1.052177	八 九 七 八
-1.052177	八 九 七 零
-0.8480572	六 九 七 </s>
-1.254185	<s> 二 七 七
-1.254185	<s> 二 七 九
-1.10333	一 二 七 </s>
-1.10333	一 二 七 四
-0.8749491	七 二 七 九
-0.9272385	三 二 七 </s>
-0.9272385	三 二 七 零
-1.10333	九 二 七 一
-1.10333	九 二 七 六
-0.9272385	五 二 七 一
-0.9272385	八 二 七 </s>
-0.9272385	八 二 七 八
-1.138191	六 二 七 七
-1.19048	六 二 七 八
-1.19048	六 二 七 六
-1.19048	六 二 七 零
-0.9941853	四 二 七 三
-0.9941853	四 二 七 五
-1.19048	零 二 七 一
-1.19048	零 二 七 三
-1.052177	<s> 五 七 二
-1.052177	<s> 五 七 八
-1.10333	一 五 七 </s>
-1.10333	一 五 七 二
-1.052177	七 五 七 一
-1.28637	三 五 七 九
-1.295215	三 五 七 五
-1.295215	三 五 七 八
-0.9941853	九 五 七 零
-1.05104	二 五 七 七
-1.05104	二 五 七 九
-1.10333	二 五 七 零
-1.052177	八 五 七 九
-1.052177	八 五 七 六
-1.05104	六 五 七 </s>
-1.10333	六 五 七 二
-1.052177	四 五 七 三
-1.05104	一 八 七 </s>
-1.10333	一 八 七 四
-0.9941853	七 八 七 八
-0.9941853	七 八 七 四
-1.149087	三 八 七 一
-1.149087	三 八 七 零
-0.9272385	九 八 七 二
-1.254185	二 八 七 </s>
-1.263031	二 八 七 五
-1.263031	二 八 七 四
-1.175979	五 八 七 </s>
-1.219423	五 八 七 七
-1.228269	五 八 七 六
-1.10333	八 八 七 五
-1.10333	八 八 七 零
-1.052177	六 八 七 七
-1.052177	六 八 七 四
-0.9272385	四 八 七 一
-0.9272385	四 八 七 二
-0.9941853	零 八 七 四
-1.300918	<s> 六 七 一
-1.300918	<s> 六 七 七
-1.353207	<s> 六 七 九
-1.344362	<s> 六 七 四
-0.9941853	一 六 七 一
-0.9418959	一 六 七 六
-0.9941853	七 六 七 三
-0.9941853	七 六 七 零
-0.8480572	三 六 七 </s>
-0.9272385	九 六 七 </s>
-0.9272385	九 六 七 一
-0.9272385	二 六 七 八
-0.7957678	五 六 七 五
-0.9183928	八 六 七 四
-1.045846	四 六 七 </s>
-1.228269	四 六 七 零
-1.05104	零 六 七 六
-1.05104	零 六 七 零
-1.149087	<s> 四 七 九
-1.149087	<s> 四 七 五
-1.149087	<s> 四 七 零
-0.9941853	一 四 七 九
-0.9941853	一 四 七 五
-1.228269	七 四 七 </s>
-1.228269	七 四 七 一
-1.228269	七 四 七 七
-1.228269	七 四 七 二
-0.9941853	三 四 七 零
-1.228269	九 四 七 二
-1.228269	九 四 七 五
-1.228269	九 四 七 六
-1.228269	九 四 七 零
-0.9272385	二 四 七 四
-1.052177	五 四 七 七
-1.052177	五 四 七 九
-1.052177	六 四 七 </s>
-0.9998878	六 四 七 八
-0.9998878	四 四 七 五
-0.9998878	零 四 七 九
-1.052177	零 四 七 二
-1.228269	<s> 零 七 一
-1.228269	<s> 零 七 七
-1.228269	<s> 零 七 九
-1.175979	<s> 零 七 零
-0.9272385	一 零 七 </s>
-0.9998878	七 零 七 八
-0.8480572	三 零 七 九
-0.9272385	九 零 七 六
-1.149087	二 零 七 六
-0.7511472	五 零 七 四
-1.05104	六 零 七 </s>
-1.10333	六 零 七 九
-1.10333	六 零 七 八
-0.9272385	四 零 七 八
-1.10333	零 零 七 </s>
-1.094484	零 零 七 六
-1.10333	<s> 一 三 九
-1.10333	<s> 一 三 五
-1.10333	<s> 一 三 六
-0.9272385	一 一 三 一
-0.9272385	七 一 三 二
-0.9272385	三 一 三 八
-0.9272385	三 一 三 零
-0.9272385	九 一 三 </s>
-0.9272385	九 一 三 四
-1.149087	二 一 三 </s>
-1.149087	二 一 三 七
-1.149087	二 一 三 三
-1.052177	五 一 三 四
-1.138191	八 一 三 三
-1.19048	八 一 三 八
-1.138191	八 一 三 六
-1.10333	六 一 三 五
-1.10333	六 一 三 零
-1.228269	四 一 三 一
-1.228269	四 一 三 五
-1.228269	四 一 三 零
-0.8480572	零 一 三 七
-0.9272385	<s> 七 三 一
-1.228269	一 七 三 一
-1.228269	一 七 三 七
-1.228269	一 七 三 四
-1.19048	三 七 三 一
-1.19048	三 七 三 七
-1.19048	三 七 三 九
-1.138191	三 七 三 四
-1.10333	九 七 三 </s>
-1.10333	九 七 三 一
-1.10333	九 七 三 二
-0.8749491	二 七 三 七
-0.9998878	五 七 三 零
-0.8480572	八 七 三 </s>
-1.395514	<s> 三 三 一
-1.35207	<s> 三 三 七
-1.40436	<s> 三 三 九
-1.40436	<s> 三 三 八
-1.35207	<s> 三 三 四
-1.40436	<s> 三 三 零
-1.228269	一 三 三 </s>
-1.228269	一 三 三 二
-1.228269	一 三 三 四
-0.8480572	七 三 三 九
-0.8480572	三 三 三 四
-0.7511472	九 三 三 二
-0.9418959	二 三 三 </s>
-0.9941853	二 三 三 六
-1.210741	五 三 三 一
-1.263031	五 三 三 九
-1.210741	五 三 三 二
-1.263031	五 三 三 八
-0.9941853	八 三 三 </s>
-0.9941853	八 三 三 五
-0.9941853	八 三 三 八
-1.05104	零 三 三 三
-1.05104	零 三 三 六
-1.05104	<s> 九 三 一
-1.10333	<s> 九 三 五
-1.05104	一 九 三 </s>
-1.10333	一 九 三 一
-1.052177	七 九 三 七
-1.052177	七 九 三 零
-0.7511472	三 九 三 八
-1.096798	九 九 三 七
-1.149087	九 九 三 四
-1.05104	二 九 三 八
-1.052177	五 九 三 七
-0.9853395	八 九 三 </s>
-0.9941853	四 九 三 </s>
-0.9418959	四 九 三 八
-1.138191	<s> 二 三 一
-1.138191	<s> 二 三 二
-0.9941853	一 二 三 四
-1.175979	七 二 三 </s>
-1.228269	七 二 三 九
-1.175979	七 二 三 八
-1.228269	七 二 三 四
-0.9272385	九 二 三 七
-0.9998878	二 二 三 四
-0.8480572	五 二 三 七
-1.052177	八 二 三 三
-1.052177	八 二 三 零
-0.9272385	六 二 三 三
-1.05104	零 二 三 </s>
-1.10333	零 二 三 五
-1.10333	零 二 三 六
-1.228269	<s> 五 三 三
-1.228269	<s> 五 三 二
-1.228269	<s> 五 三 八
-1.175979	<s> 五 三 六
-1.228269	<s> 五 三 四
-1.228269	一 五 三 </s>
-1.228269	一 五 三 三
-1.175979	一 五 三 九
-1.05104	七 五 三 二
-0.9941853	三 五 三 </s>
-0.9941853	三 五 三 六
-1.149087	二 五 三 四
-1.10333	五 五 三 七
-1.10333	五 五 三 九
-0.9418959	八 五 三 零
-0.9998878	六 五 三 五
-0.9941853	四 五 三 三
-0.9941853	四 五 三 五
-1.149087	零 五 三 七
-1.149087	零 五 三 四
-1.295215	<s> 八 三 七
-1.295215	<s> 八 三 二
-1.295215	<s> 八 三 五
-1.242926	<s> 八 三 六
-1.325179	一 八 三 </s>
-1.325179	一 八 三 一
-1.325179	一 八 三 八
-1.272889	一 八 三 四
-1.325179	一 八 三 零
-1.10333	七 八 三 九
-1.052177	二 八 三 二
-0.9998878	二 八 三 六
-1.052177	五 八 三 七
-1.052177	五 八 三 零
-1.138191	六 八 三 </s>
-1.19048	六 八 三 五
-1.19048	六 八 三 零
-1.052177	四 八 三 七
-1.052177	四 八 三 九
-0.9998878	四 八 三 二
-0.9272385	零 八 三 七
-0.9272385	零 八 三 三
-1.052177	<s> 六 三 一
-0.9998878	<s> 六 三 九
-1.10333	一 六 三 九
-1.10333	一 六 三 五
-0.9272385	七 六 三 八
-1.096798	九 六 三 </s>
-1.149087	九 六 三 八
-1.149087	二 六 三 一
-1.149087	二 六 三 四
-1.149087	二 六 三 零
-1.149087	八 六 三 一
-1.149087	八 六 三 三
-1.149087	八 六 三 九
-1.096798	八 六 三 六
-1.10333	四 六 三 八
-1.10333	四 六 三 零
-0.8749491	零 六 三 五
-1.10333	<s> 四 三 七
-1.10333	<s> 四 三 五
-1.19048	一 四 三 二
-1.19048	一 四 三 五
-1.19048	一 四 三 六
-0.7957678	七 四 三 九
-1.10333	三 四 三 二
-1.10333	三 四 三 五
-0.9418959	九 四 三 </s>
-1.228269	五 四 三 九
-1.228269	五 四 三 五
-1.228269	五 四 三 六
-1.175979	五 四 三 零
-1.10333	八 四 三 八
-1.10333	八 四 三 四
-1.228269	六 四 三 </s>
-1.228269	六 四 三 七
-1.228269	六 四 三 二
-1.228269	六 四 三 五
-1.228269	六 四 三 四
-0.8480572	四 四 三 五
-1.052177	零 四 三 五
-1.228269	<s> 零 三 三
-1.175979	<s> 零 三 九
-1.228269	<s> 零 三 四
-1.228269	<s> 零 三 零
-1.19048	一 零 三 一
-1.19048	一 零 三 三
-1.19048	一 零 三 六
-1.138191	七 零 三 一
-1.19048	七 零 三 三
-1.19048	七 零 三 四
-1.149087	三 零 三 五
-1.149087	三 零 三 六
-0.9941853	九 零 三 </s>
-0.9941853	九 零 三 二
-0.9941853	九 零 三 零
-1.10333	二 零 三 </s>
-1.094484	二 零 三 七
-0.9941853	五 零 三 八
-0.9941853	五 零 三 六
-0.7511472	八 零 三 八
-1.19048	六 零 三 </s>
-1.138191	六 零 三 二
-1.19048	六 零 三 四
-1.228269	四 零 三 二
-1.228269	四 零 三 六
-1.10333	<s> 一 九 三
-1.05104	<s> 一 九 二
-1.10333	<s> 一 九 六
-1.263031	一 一 九 一
-1.254185	一 一 九 七
-1.263031	一 一 九 三
-1.263031	一 一 九 五
-1.052177	七 一 九 </s>
-1.052177	七 一 九 三
-1.052177	三 一 九 五
-1.138191	九 一 九 一
-1.19048	九 一 九 九
-1.19048	九 一 九 零
-0.6262085	二 一 九 一
-0.8480572	五 一 九 一
-0.9941853	八 一 九 </s>
-0.9418959	八 一 九 一
-1.228269	六 一 九 七
-1.175979	六 一 九 四
-1.228269	六 一 九 零
-1.228269	四 一 九 一
-1.228269	四 一 九 五
-1.228269	四 一 九 八
-1.228269	四 一 九 四
-1.05104	零 一 九 一
-1.10333	零 一 九 五
-1.10333	零 一 九 八
-1.228269	<s> 七 九 六
-1.175979	<s> 七 九 四
-1.228269	<s> 七 九 零
-1.263031	一 七 九 </s>
-1.263031	一 七 九 一
-1.263031	一 七 九 二
-1.263031	一 七 九 五
-1.263031	一 七 九 四
-1.263031	三 七 九 一
-1.263031	三 七 九 三
-1.263031	三 七 九 二
-1.263031	三 七 九 五
-1.263031	三 七 九 零
-1.10333	九 七 九 二
-1.10333	九 七 九 八
-1.10333	九 七 九 零
-1.263031	二 七 九 三
-1.263031	二 七 九 八
-1.263031	二 七 九 四
-1.325179	五 七 九 一
-1.272889	五 七 九 七
-1.325179	五 七 九 九
-1.316333	五 七 九 五
-0.9941853	八 七 九 七
-0.9418959	八 七 九 九
-1.272889	四 七 九 七
-1.272889	四 七 九 二
-1.325179	四 七 九 六
-1.325179	四 七 九 四
-1.10333	零 七 九 </s>
-1.10333	零 七 九 六
-1.05104	零 七 九 零
-1.450117	<s> 三 九 一
-1.450117	<s> 三 九 七
-1.450117	<s> 三 九 九
-1.397828	<s> 三 九 二
-1.397828	<s> 三 九 五
-1.450117	<s> 三 九 六
-1.397828	<s> 三 九 零
-0.7511472	一 三 九 四
-0.8749491	七 三 九 </s>
-1.052177	三 三 九 八
-0.9272385	二 三 九 七
-0.9941853	五 三 九 六
-1.140242	八 三 九 二
-1.263031	六 三 九 </s>
-1.254185	六 三 九 九
-1.263031	六 三 九 八
-1.263031	六 三 九 六
-1.149087	四 三 九 </s>
-1.096798	四 三 九 二
-1.149087	四 三 九 零
-0.8480572	零 三 九 四
-1.052177	<s> 九 九 七
-0.9998878	<s> 九 九 二
-0.9272385	一 九 九 </s>
-0.9272385	一 九 九 四
-0.9418959	七 九 九 </s>
-1.052177	三 九 九 一
-1.052177	三 九 九 九
-1.052177	三 九 九 五
-0.9998878	九 九 九 </s>
-1.10333	二 九 九 </s>
-1.10333	二 九 九 一
-1.05104	二 九 九 八
-0.6262085	五 九 九 零
-1.149087	八 九 九 一
-1.096798	八 九 九 三
-1.149087	八 九 九 八
-1.052177	六 九 九 九
-1.052177	六 九 九 四
-0.7511472	四 九 九 </s>
-0.9941853	零 九 九 三
-1.295215	<s> 二 九 七
-1.295215	<s> 二 九 二
-1.242926	<s> 二 九 五
-1.295215	<s> 二 九 四
-1.10333	一 二 九 零
-0.9941853	七 二 九 六
-1.10333	九 二 九 七
-1.094484	九 二 九 五
-1.10333	九 二 九 零
-0.9941853	二 二 九 八
-1.10333	八 二 九 三
-1.10333	八 二 九 八
-1.10333	八 二 九 四
-1.052177	六 二 九 二
-1.052177	六 二 九 八
-0.9418959	四 二 九 一
-1.19048	零 二 九 </s>
-1.19048	零 二 九 八
-1.19048	零 二 九 六
-0.9418959	<s> 五 九 六
-0.8480572	七 五 九 三
-1.052177	三 五 九 一
-0.9998878	三 五 九 七
-1.052177	三 五 九 六
-0.9941853	九 五 九 一
-0.9941853	九 五 九 七
-1.19048	五 五 九 </s>
-1.19048	五 五 九 二
-1.05104	八 五 九 </s>
-1.10333	八 五 九 四
-1.052177	六 五 九 三
-1.10333	四 五 九 </s>
-1.10333	四 五 九 三
-1.10333	四 五 九 二
-0.9941853	零 五 九 </s>
-0.9941853	零 五 九 四
-1.10333	<s> 八 九 九
-1.10333	<s> 八 九 八
-1.295215	一 八 九 </s>
-1.295215	一 八 九 七
-1.242926	一 八 九 二
-0.9941853	七 八 九 </s>
-0.9941853	七 八 九 七
-0.9941853	七 八 九 六
-1.19048	三 八 九 九
-1.138191	三 八 九 五
-1.19048	三 八 九 八
-1.052177	九 八 九 七
-1.19048	二 八 九 </s>
-1.19048	二 八 九 二
-0.7957678	五 八 九 四
-1.19048	八 八 九 </s>
-1.138191	八 八 九 一
-1.19048	八 八 九 五
-0.9853395	六 八 九 一
-1.10333	四 八 九 三
-1.10333	四 八 九 二
-1.10333	四 八 九 六
-0.9941853	零 八 九 九
-0.9941853	零 八 九 六
-1.10333	<s> 六 九 一
-1.10333	<s> 六 九 五
-1.10333	<s> 六 九 四
-1.052177	一 六 九 一
-1.052177	一 六 九 八
-0.8480572	七 六 九 七
-0.8480572	七 六 九 六
-1.052177	三 六 九 八
-1.052177	三 六 九 零
-1.052177	九 六 九 零
-1.210741	二 六 九 一
-1.263031	二 六 九 八
-1.263031	二 六 九 六
-1.10333	五 六 九 四
-1.10333	八 六 九 三
-1.10333	八 六 九 八
-0.9418959	六 六 九 九
-0.9941853	四 六 九 五
-0.9941853	四 六 九 八
-0.9941853	零 六 九 一
-0.9941853	零 六 九 六
-1.10333	<s> 四 九 一
-1.10333	<s> 四 九 八
-1.10333	<s> 四 九 四
-0.7511472	一 四 九 九
-0.9272385	七 四 九 </s>
-0.9272385	七 四 九 四
-1.10333	九 四 九 三
-1.10333	九 四 九 八
-0.9941853	二 四 九 五
-0.9941853	二 四 九 八
-1.05104	五 四 九 </s>
-1.10333	五 四 九 三
-1.10333	五 四 九 五
-1.149087	四 四 九 </s>
-1.149087	四 四 九 七
-1.149087	四 四 九 六
-0.9998878	零 四 九 </s>
-1.052177	零 四 九 四
-1.052177	<s> 零 九 二
-1.052177	<s> 零 九 五
-1.052177	<s> 零 九 四
-1.052177	一 零 九 七
-1.052177	一 零 九 二
-1.05104	七 零 九 九
-1.10333	七 零 九 八
-0.8480572	三 零 九 九
-0.9941853	九 零 九 </s>
-0.9941853	九 零 九 三
-0.9941853	五 零 九 六
-0.9272385	八 零 九 一
-0.9272385	八 零 九 二
-0.9272385	四 零 九 二
-0.7511472	零 零 九 五
-1.19048	<s> 一 二 一
-1.19048	<s> 一 二 五
-1.19048	<s> 一 二 零
-0.9941853	一 一 二 五
-0.9941853	七 一 二 </s>
-1.096798	三 一 二 九
-1.149087	三 一 二 六
-0.8480572	九 一 二 七
-1.10333	二 一 二 </s>
-1.10333	二 一 二 九
-1.228269	五 一 二 </s>
-1.228269	五 一 二 一
-1.228269	五 一 二 七
-1.175979	五 一 二 六
-0.9853395	八 一 二 </s>
-1.10333	六 一 二 </s>
-1.10333	六 一 二 三
-1.10333	六 一 二 八
-0.9272385	四 一 二 七
-0.9418959	零 一 二 六
-1.228269	<s> 七 二 一
-1.219423	<s> 七 二 三
-1.228269	<s> 七 二 零
-1.149087	一 七 二 五
-1.140242	一 七 二 四
-1.10333	七 七 二 一
-1.10333	七 七 二 三
-1.10333	三 七 二 五
-1.10333	三 七 二 六
-1.052177	九 七 二 四
-1.19048	五 七 二 七
-1.19048	五 七 二 二
-1.19048	五 七 二 五
-1.096798	四 七 二 </s>
-1.149087	四 七 二 六
-0.9941853	零 七 二 四
-1.149087	<s> 三 二 一
-1.149087	<s> 三 二 六
-1.149087	<s> 三 二 零
-1.052177	一 三 二 二
-1.052177	一 三 二 零
-1.052177	七 三 二 七
-1.052177	七 三 二 二
-1.10333	三 三 二 七
-1.10333	三 三 二 八
-0.7957678	九 三 二 </s>
-0.9272385	二 三 二 四
-1.10333	五 三 二 五
-1.10333	五 三 二 八
-1.140242	八 三 二 六
-1.149087	八 三 二 四
-0.8480572	六 三 二 </s>
-1.10333	四 三 二 </s>
-1.10333	四 三 二 二
-1.10333	四 三 二 六
-1.19048	零 三 二 九
-1.138191	零 三 二 四
-1.05104	<s> 九 二 五
-1.10333	<s> 九 二 六
-1.052177	一 九 二 四
-1.052177	一 九 二 零
-1.19048	七 九 二 一
-1.19048	七 九 二 九
-1.19048	七 九 二 八
-1.19048	七 九 二 四
-1.19048	七 九 二 零
-1.242926	三 九 二 七
-1.242926	三 九 二 四
-0.8749491	九 九 二 七
-0.9272385	九 九 二 三
-1.096798	二 九 二 </s>
-1.149087	二 九 二 二
-0.9272385	五 九 二 九
-1.228269	八 九 二 </s>
-1.228269	八 九 二 一
-1.228269	八 九 二 六
-1.228269	八 九 二 零
-1.210741	零 九 二 九
-1.263031	零 九 二 二
-1.210741	零 九 二 零
-1.19048	<s> 二 二 三
-1.181634	<s> 二 二 零
-1.10333	七 二 二 七
-1.05104	七 二 二 八
-1.05104	七 二 二 四
-1.052177	三 二 二 </s>
-1.052177	三 二 二 五
-1.10333	九 二 二 </s>
-1.10333	九 二 二 九
-1.10333	九 二 二 四
-0.9272385	五 二 二 </s>
-0.9941853	八 二 二 一
-0.9941853	八 二 二 八
-0.8480572	六 二 二 零
-1.210741	四 二 二 一
-1.210741	四 二 二 五
-1.263031	四 二 二 六
-1.210741	四 二 二 零
-0.9941853	零 二 二 八
-0.9272385	<s> 五 二 七
-0.9272385	<s> 五 二 五
-0.9941853	一 五 二 </s>
-0.9941853	一 五 二 五
-1.052177	七 五 二 </s>
-0.9941853	三 五 二 六
-0.9272385	九 五 二 九
-0.9998878	二 五 二 一
-1.175979	五 五 二 </s>
-1.175979	五 五 二 四
-1.142756	六 五 二 </s>
-1.325179	六 五 二 二
-1.325179	六 五 二 五
-1.316333	六 五 二 八
-1.10333	四 五 二 </s>
-1.05104	四 五 二 六
-1.10333	四 五 二 零
-0.9272385	零 五 二 六
-0.9272385	<s> 八 二 零
-1.19048	一 八 二 一
-1.19048	一 八 二 五
-1.19048	一 八 二 八
-1.10333	七 八 二 </s>
-1.10333	七 八 二 五
-1.149087	九 八 二 五
-1.096798	九 八 二 六
-1.149087	九 八 二 零
-0.9941853	二 八 二 一
-0.9272385	五 八 二 一
-0.8749491	五 八 二 四
-1.043332	八 八 二 三
-1.052177	八 八 二 九
-0.8480572	六 八 二 二
-1.052177	四 八 二 一
-1.052177	四 八 二 二
-1.052177	零 八 二 九
-1.052177	零 八 二 六
-0.9941853	<s> 六 二 五
-0.9941853	<s> 六 二 六
-0.8480572	一 六 二 四
-1.149087	七 六 二 一
-1.096798	七 六 二 七
-1.149087	七 六 二 五
-1.052177	九 六 二 六
-0.9272385	二 六 二 六
-1.052177	五 六 二 一
-1.052177	五 六 二 二
-1.10333	八 六 二 </s>
-1.10333	八 六 二 九
-1.05104	八 六 二 四
-1.149087	六 六 二 九
-1.149087	六 六 二 六
-1.138191	四 六 二 七
-1.19048	四 六 二 零
-0.9941853	零 六 二 四
-0.8480572	<s> 四 二 八
-1.10333	一 四 二 </s>
-1.10333	一 四 二 五
-1.10333	一 四 二 八
-0.8480572	七 四 二 </s>
-0.8480572	七 四 二 六
-1.19048	三 四 二 </s>
-1.138191	三 四 二 二
-1.19048	三 四 二 五
-1.19048	三 四 二 八
-1.10333	九 四 二 一
-1.10333	九 四 二 九
-1.10333	九 四 二 八
-1.263031	二 四 二 </s>
-1.263031	二 四 二 一
-1.263031	二 四 二 二
-1.263031	二 四 二 六
-1.10333	五 四 二 </s>
-1.10333	五 四 二 四
-0.9272385	八 四 二 七
-0.9272385	八 四 二 二
-1.19048	六 四 二 </s>
-1.19048	六 四 二 九
-1.19048	六 四 二 五
-0.9418959	四 四 二 五
-0.8749491	零 四 二 </s>
-1.353207	<s> 零 二 一
-1.300918	<s> 零 二 七
-1.353207	<s> 零 二 九
-1.353207	<s> 零 二 五
-1.344362	<s> 零 二 八
-1.210741	一 零 二 </s>
-1.210741	一 零 二 五
-1.210741	一 零 二 零
-0.9941853	七 零 二 九
-1.175979	三 零 二 一
-1.228269	三 零 二 七
-1.10333	九 零 二 三
-1.10333	九 零 二 四
-1.19048	二 零 二 </s>
-1.19048	二 零 二 一
-1.19048	二 零 二 三
-1.19048	二 零 二 八
-1.10333	五 零 二 一
-1.10333	五 零 二 九
-1.10333	五 零 二 五
-1.10333	五 零 二 六
-1.10333	八 零 二 九
-1.10333	八 零 二 零
-1.149087	六 零 二 七
-1.096798	六 零 二 二
-1.149087	六 零 二 六
-1.052177	四 零 二 </s>
-0.9998878	四 零 二 八
-1.052177	零 零 二 一
-0.9998878	零 零 二 五
-1.096798	<s> 一 五 七
-1.149087	<s> 一 五 八
-1.149087	<s> 一 五 零
-1.10333	一 一 五 </s>
-1.10333	一 一 五 三
-1.10333	一 一 五 九
-1.052177	七 一 五 八
-1.295215	三 一 五 </s>
-1.242926	三 一 五 七
-1.242926	三 一 五 二
-1.10333	九 一 五 </s>
-1.10333	九 一 五 五
-1.10333	九 一 五 四
-1.228269	二 一 五 </s>
-1.045846	二 一 五 三
-1.228269	二 一 五 八
-0.9272385	八 一 五 八
-0.8480572	六 一 五 五
-0.8480572	六 一 五 八
-1.19048	零 一 五 七
-1.19048	零 一 五 三
-1.138191	零 一 五 八
-1.19048	零 一 五 六
-0.9941853	<s> 七 五 四
-0.9941853	<s> 七 五 零
-0.9272385	一 七 五 四
-0.9272385	七 七 五 三
-0.9272385	三 七 五 四
-0.9272385	二 七 五 </s>
-1.052177	五 七 五 五
-1.10333	八 七 五 二
-1.10333	八 七 五 八
-1.10333	八 七 五 四
-0.8480572	六 七 五 七
-0.8480572	六 七 五 三
-1.263031	四 七 五 九
-1.263031	四 七 五 二
-1.263031	四 七 五 四
-1.263031	四 七 五 零
-1.096798	<s> 三 五 一
-1.149087	<s> 三 五 八
-1.149087	<s> 三 五 零
-1.10333	一 三 五 </s>
-1.10333	一 三 五 七
-1.10333	一 三 五 零
-0.9272385	三 三 五 七
-0.8749491	九 三 五 六
-0.9272385	二 三 五 九
-1.052177	五 三 五 三
-1.052177	五 三 五 二
-0.9941853	八 三 五 七
-0.9941853	八 三 五 八
-1.096798	六 三 五 七
-1.149087	六 三 五 九
-1.149087	六 三 五 五
-1.327247	四 三 五 </s>
-1.327247	四 三 五 七
-1.327247	四 三 五 五
-1.37069	四 三 五 六
-0.7511472	零 三 五 五
-1.10333	<s> 九 五 九
-1.10333	<s> 九 五 二
-1.096798	一 九 五 一
-1.149087	一 九 五 八
-1.149087	一 九 五 零
-1.19048	七 九 五 七
-1.19048	七 九 五 四
-1.19048	七 九 五 零
-1.052177	三 九 五 九
-1.052177	三 九 五 五
-1.325179	二 九 五 </s>
-1.325179	二 九 五 九
-1.325179	二 九 五 五
-1.272889	二 九 五 六
-1.325179	二 九 五 零
-0.8480572	五 九 五 </s>
-1.052177	六 九 五 </s>
-1.052177	六 九 五 一
-1.052177	六 九 五 八
-1.052177	四 九 五 七
-1.052177	四 九 五 八
-0.9272385	零 九 五 四
-0.9272385	零 九 五 零
-0.9272385	<s> 二 五 八
-0.8749491	<s> 二 五 六
-1.140242	一 二 五 </s>
-1.149087	一 二 五 六
-1.052177	七 二 五 三
-1.052177	七 二 五 二
-1.10333	九 二 五 一
-1.10333	九 二 五 七
-1.10333	二 二 五 三
-1.05104	二 二 五 六
-1.10333	五 二 五 八
-1.05104	五 二 五 四
-0.9272385	八 二 五 </s>
-0.9272385	八 二 五 三
-0.9272385	六 二 五 五
-1.228269	四 二 五 </s>
-1.175979	四 二 五 一
-1.228269	四 二 五 七
-1.228269	四 二 五 二
-1.228269	四 二 五 八
-1.210741	零 二 五 </s>
-1.210741	零 二 五 三
-1.19048	<s> 五 五 三
-1.19048	<s> 五 五 二
-1.19048	<s> 五 五 四
-1.052177	一 五 五 七
-0.9998878	一 五 五 八
-1.052177	七 五 五 </s>
-1.052177	七 五 五 二
-0.9998878	七 五 五 六
-1.149087	三 五 五 九
-1.149087	三 五 五 六
-1.149087	三 五 五 零
-1.149087	九 五 五 </s>
-1.149087	九 五 五 三
-1.149087	九 五 五 九
-1.149087	九 五 五 八
-0.9272385	二 五 五 </s>
-0.8480572	五 五 五 二
-1.10333	八 五 五 九
-1.10333	八 五 五 二
-1.10333	六 五 五 </s>
-1.10333	六 五 五 三
-1.10333	六 五 五 六
-1.10333	零 五 五 一
-1.05104	零 五 五 二
-1.10333	零 五 五 零
-1.263031	<s> 八 五 七
-1.263031	<s> 八 五 三
-1.263031	<s> 八 五 二
-1.263031	<s> 八 五 六
-1.263031	<s> 八 五 零
-1.149087	一 八 五 三
-1.149087	一 八 五 九
-0.9941853	三 八 五 </s>
-1.19048	九 八 五 </s>
-1.138191	九 八 五 零
-1.210741	五 八 五 </s>
-1.263031	五 八 五 七
-1.210741	五 八 五 四
-0.9272385	八 八 五 </s>
-1.138191	六 八 五 零
-0.8749491	四 八 五 </s>
-0.9941853	零 八 五 九
-0.9941853	零 八 五 五
-1.228269	<s> 六 五 九
-1.228269	<s> 六 五 五
-1.228269	<s> 六 五 四
-1.228269	<s> 六 五 零
-0.9941853	一 六 五 八
-1.19048	七 六 五 一
-1.19048	七 六 五 二
-0.9941853	三 六 五 二
-1.052177	九 六 五 三
-1.052177	九 六 五 二
-1.149087	二 六 五 </s>
-1.149087	二 六 五 七
-1.149087	二 六 五 九
-1.263031	五 六 五 </s>
-1.263031	五 六 五 七
-1.263031	五 六 五 三
-1.263031	五 六 五 二
-1.263031	五 六 五 零
-0.9272385	八 六 五 零
-1.052177	六 六 五 七
-0.9998878	六 六 五 二
-0.9941853	四 六 五 零
-1.10333	<s> 四 五 三
-1.10333	<s> 四 五 四
-1.19048	一 四 五 九
-1.19048	一 四 五 二
-0.9998878	七 四 五 三
-1.052177	七 四 五 六
-1.052177	三 四 五 一
-1.052177	三 四 五 八
-0.9272385	九 四 五 八
-1.10333	二 四 五 八
-1.10333	二 四 五 零
-0.9941853	五 四 五 五
-0.9941853	八 四 五 二
-0.9941853	八 四 五 六
-0.9941853	八 四 五 四
-1.096798	六 四 五 </s>
-1.149087	六 四 五 五
-0.9418959	零 四 五 九
-1.228269	<s> 零 五 一
-1.219423	<s> 零 五 三
-1.228269	<s> 零 五 九
-1.228269	<s> 零 五 八
-0.9272385	七 零 五 </s>
-0.9272385	三 零 五 八
-0.6262085	九 零 五 四
-1.149087	二 零 五 </s>
-1.149087	二 零 五 七
-1.149087	二 零 五 八
-1.19048	五 零 五 一
-1.19048	五 零 五 五
-1.19048	五 零 五 八
-1.181634	五 零 五 四
-1.228269	八 零 五 </s>
-1.228269	八 零 五 三
-1.228269	六 零 五 </s>
-1.228269	六 零 五 二
-1.175979	六 零 五 五
-0.9941853	四 零 五 九
-0.9941853	四 零 五 二
-0.9941853	零 零 五 一
-0.9941853	零 零 五 三
-1.295215	<s> 一 八 七
-1.242926	<s> 一 八 三
-1.242926	<s> 一 八 五
-1.19048	一 一 八 七
-1.19048	一 一 八 二
-1.228269	七 一 八 </s>
-1.228269	七 一 八 七
-1.228269	七 一 八 五
-1.228269	七 一 八 八
-1.228269	七 一 八 四
-1.052177	三 一 八 三
-0.9998878	九 一 八 九
-1.242926	二 一 八 三
-1.242926	二 一 八 九
-1.295215	二 一 八 二
-1.295215	二 一 八 六
-0.8480572	五 一 八 </s>
-1.10333	六 一 八 九
-1.149087	四 一 八 一
-1.149087	四 一 八 三
-1.096798	四 一 八 二
-0.8480572	零 一 八 零
-1.175979	<s> 七 八 三
-1.228269	<s> 七 八 二
-1.175979	<s> 七 八 八
-1.228269	<s> 七 八 六
-0.6262085	一 七 八 二
-1.052177	三 七 八 </s>
-1.052177	三 七 八 五
-1.10333	九 七 八 </s>
-1.10333	九 七 八 一
-1.10333	九 七 八 三
-0.9941853	二 七 八 </s>
-0.9941853	二 七 八 九
-1.10333	八 七 八 一
-1.05104	八 七 八 二
-0.7511472	六 七 八 零
-0.9272385	四 七 八 三
-1.181634	零 七 八 七
-1.138191	零 七 八 六
-1.254185	<s> 三 八 二
-1.263031	<s> 三 八 六
-1.263031	<s> 三 八 四
-1.10333	一 三 八 一
-1.05104	一 三 八 零
-1.052177	三 三 八 九
-1.263031	九 三 八 一
-1.263031	九 三 八 七
-1.210741	九 三 八 四
-1.263031	九 三 八 零
-1.094484	二 三 八 六
-1.10333	二 三 八 零
-1.10333	五 三 八 一
-1.05104	五 三 八 七
-1.10333	五 三 八 九
-0.9272385	八 三 八 八
-0.9272385	八 三 八 四
-1.052177	四 三 八 七
-1.052177	四 三 八 九
-1.052177	零 三 八 </s>
-0.9998878	零 三 八 八
-0.9272385	<s> 九 八 七
-0.9272385	<s> 九 八 八
-1.10333	一 九 八 </s>
-1.10333	一 九 八 六
-1.05104	一 九 八 四
-1.052177	七 九 八 </s>
-1.052177	七 九 八 六
-1.052177	三 九 八 </s>
-1.052177	三 九 八 二
-1.052177	九 九 八 一
-1.138191	二 九 八 </s>
-1.19048	二 九 八 二
-1.19048	二 九 八 五
-1.052177	五 九 八 八
-1.052177	五 九 八 零
-1.052177	八 九 八 二
-1.052177	八 九 八 八
-1.295215	六 九 八 一
-1.295215	六 九 八 三
-1.242926	六 九 八 五
-1.295215	六 九 八 零
-1.10333	四 九 八 零
-0.9418959	零 九 八 九
-0.9941853	<s> 二 八 二
-0.9941853	<s> 二 八 四
-0.9941853	<s> 二 八 零
-0.8480572	一 二 八 七
-0.7957678	一 二 八 六
-0.9418959	七 二 八 七
-0.9941853	三 二 八 七
-0.9941853	三 二 八 三
-0.8480572	九 二 八 八
-1.052177	二 二 八 九
-1.05104	五 二 八 九
-1.10333	五 二 八 五
-1.10333	五 二 八 四
-0.8480572	八 二 八 六
-1.228269	四 二 八 </s>
-1.228269	四 二 八 七
-1.228269	四 二 八 三
-1.228269	四 二 八 二
-1.295215	零 二 八 三
-1.242926	零 二 八 九
-1.295215	零 二 八 八
-1.052177	<s> 五 八 零
-1.272889	一 五 八 三
-1.272889	一 五 八 五
-1.272889	一 五 八 六
-1.325179	一 五 八 四
-1.325179	一 五 八 零
-0.9941853	七 五 八 </s>
-0.9941853	七 五 八 一
-1.052177	三 五 八 七
-1.10333	九 五 八 七
-1.10333	九 五 八 六
-1.10333	九 五 八 零
-1.228269	二 五 八 </s>
-1.175979	二 五 八 七
-1.228269	二 五 八 六
-0.9941853	八 五 八 </s>
-0.8480572	六 五 八 五
-1.138191	四 五 八 </s>
-1.19048	四 五 八 六
-1.149087	零 五 八 五
-0.8480572	一 八 八 七
-0.9941853	七 八 八 二
-0.9941853	七 八 八 四
-1.19048	三 八 八 一
-1.138191	三 八 八 七
-1.19048	三 八 八 四
-1.10333	九 八 八 九
-1.10333	九 八 八 二
-0.9418959	二 八 八 九
-0.9941853	二 八 八 六
-1.052177	五 八 八 一
-0.9998878	五 八 八 二
-0.7957678	八 八 八 五
-1.10333	六 八 八 一
-1.10333	六 八 八 七
-1.10333	六 八 八 四
-1.10333	四 八 八 </s>
-1.10333	四 八 八 八
-1.05104	四 八 八 六
-0.9998878	<s> 六 八 五
-0.9941853	七 六 八 七
-1.149087	三 六 八 九
-1.149087	三 六 八 五
-1.096798	三 六 八 八
-0.7511472	九 六 八 七
-1.149087	二 六 八 一
-1.149087	二 六 八 五
-1.096798	二 六 八 四
-1.10333	五 六 八 五
-1.10333	五 六 八 零
-0.8749491	八 六 八 一
-0.9272385	八 六 八 八
-0.8697547	四 六 八 三
-0.9941853	零 六 八 </s>
-1.228269	一 四 八 </s>
-1.228269	一 四 八 七
-1.228269	一 四 八 三
-0.9272385	七 四 八 </s>
-1.10333	二 四 八 </s>
-1.094484	二 四 八 三
-1.052177	五 四 八 二
-1.052177	四 四 八 一
-1.052177	四 四 八 九
-1.149087	<s> 零 八 一
-1.149087	<s> 零 八 六
-1.149087	<s> 零 八 零
-1.149087	七 零 八 </s>
-1.149087	七 零 八 一
-1.149087	七 零 八 二
-0.9941853	三 零 八 </s>
-0.9418959	三 零 八 九
-1.228269	九 零 八 </s>
-1.228269	九 零 八 一
-1.228269	九 零 八 七
-1.228269	九 零 八 八
-1.175979	九 零 八 四
-1.149087	二 零 八 一
-1.149087	二 零 八 三
-1.149087	二 零 八 八
-1.263031	五 零 八 </s>
-1.263031	五 零 八 一
-1.263031	五 零 八 二
-1.210741	五 零 八 五
-1.096798	八 零 八 零
-0.7511472	六 零 八 </s>
-0.7511472	零 零 八 六
-1.10333	<s> 一 六 五
-1.10333	<s> 一 六 四
-1.10333	<s> 一 六 零
-0.9272385	一 一 六 </s>
-0.9272385	一 一 六 六
-0.9272385	七 一 六 </s>
-0.9272385	七 一 六 八
-0.8480572	三 一 六 </s>
-0.8480572	三 一 六 三
-1.149087	九 一 六 七
-1.149087	九 一 六 九
-1.149087	九 一 六 五
-1.149087	九 一 六 六
-1.149087	五 一 六 一
-1.149087	五 一 六 二
-1.149087	五 一 六 五
-0.9853395	八 一 六 三
-0.9941853	八 一 六 四
-1.210741	六 一 六 </s>
-1.263031	六 一 六 一
-1.263031	六 一 六 七
-1.254185	六 一 六 九
-1.10333	四 一 六 </s>
-1.10333	四 一 六 三
-0.9272385	零 一 六 一
-1.149087	<s> 七 六 三
-1.140242	<s> 七 六 五
-0.9941853	一 七 六 二
-0.9941853	一 七 六 八
-0.9418959	一 七 六 零
-1.19048	七 七 六 三
-1.19048	七 七 六 九
-1.138191	七 七 六 二
-0.9941853	三 七 六 一
-0.9941853	三 七 六 五
-0.9418959	九 七 六 一
-0.9941853	九 七 六 六
-0.9941853	九 七 六 零
-0.9941853	二 七 六 二
-0.9272385	五 七 六 </s>
-0.9272385	八 七 六 七
-1.008057	六 七 六 零
-1.052177	四 七 六 七
-1.149087	零 七 六 一
-1.149087	零 七 六 九
-1.149087	零 七 六 四
-1.272889	<s> 三 六 一
-1.272889	<s> 三 六 九
-1.325179	<s> 三 六 八
-1.325179	<s> 三 六 四
-1.052177	一 三 六 </s>
-1.052177	一 三 六 五
-1.052177	一 三 六 零
-0.9998878	三 三 六 三
-1.052177	三 三 六 六
-0.7511472	九 三 六 一
-0.9272385	二 三 六 六
-1.138191	五 三 六 </s>
-1.19048	五 三 六 五
-1.19048	五 三 六 八
-0.9941853	六 三 六 </s>
-0.9941853	六 三 六 九
-0.9941853	四 三 六 一
-1.19048	零 三 六 </s>
-1.19048	零 三 六 七
-1.19048	零 三 六 五
-1.19048	零 三 六 六
-1.138191	<s> 九 六 二
-1.19048	<s> 九 六 四
-0.6262085	一 九 六 一
-1.19048	七 九 六 一
-1.19048	七 九 六 五
-1.052177	三 九 六 </s>
-1.052177	三 九 六 九
-1.052177	三 九 六 四
-0.9272385	二 九 六 五
-0.9272385	二 九 六 四
-0.9998878	五 九 六 九
-1.19048	八 九 六 </s>
-1.19048	八 九 六 三
-1.19048	八 九 六 八
-1.19048	八 九 六 六
-1.096798	六 九 六 </s>
-1.140242	六 九 六 三
-0.7957678	四 九 六 </s>
-1.19048	<s> 二 六 一
-1.19048	<s> 二 六 七
-1.19048	<s> 二 六 二
-1.228269	一 二 六 一
-1.228269	一 二 六 五
-1.228269	一 二 六 八
-1.175979	一 二 六 四
-1.228269	一 二 六 零
-1.052177	七 二 六 一
-1.052177	七 二 六 八
-1.19048	三 二 六 一
-1.19048	三 二 六 七
-1.138191	三 二 六 九
-1.096798	五 二 六 </s>
-1.149087	五 二 六 一
-1.19048	八 二 六 三
-1.19048	八 二 六 九
-1.138191	八 二 六 二
-1.19048	八 二 六 六
-1.228269	六 二 六 </s>
-1.175979	六 二 六 一
-1.228269	六 二 六 五
-1.228269	六 二 六 八
-0.9272385	四 二 六 九
-0.9272385	四 二 六 六
-1.19048	零 二 六 一
-1.19048	零 二 六 三
-1.138191	零 二 六 九
-1.19048	零 二 六 八
-1.19048	<s> 五 六 二
-1.19048	<s> 五 六 五
-1.19048	<s> 五 六 四
-1.19048	<s> 五 六 零
-0.9998878	一 五 六 九
-1.149087	三 五 六 一
-1.096798	三 五 六 八
-1.05104	九 五 六 五
-1.10333	九 五 六 六
-1.19048	二 五 六 </s>
-1.19048	二 五 六 七
-1.19048	二 五 六 零
-1.19048	五 五 六 六
-1.19048	五 五 六 四
-1.19048	五 五 六 零
-1.052177	八 五 六 </s>
-1.052177	八 五 六 二
-1.052177	八 五 六 八
-0.7511472	六 五 六 二
-0.9998878	四 五 六 五
-1.052177	四 五 六 四
-1.19048	<s> 八 六 七
-1.19048	<s> 八 六 三
-1.19048	<s> 八 六 二
-1.138191	<s> 八 六 零
-1.140242	一 八 六 九
-1.096798	一 八 六 六
-1.052177	七 八 六 四
-1.052177	七 八 六 零
-1.096798	三 八 六 </s>
-1.149087	三 八 六 一
-1.149087	三 八 六 八
-1.052177	九 八 六 五
-0.9941853	二 八 六 三
-0.9941853	二 八 六 二
-0.9418959	二 八 六 零
-1.263031	五 八 六 </s>
-1.263031	五 八 六 一
-1.210741	五 八 六 三
-1.210741	五 八 六 四
-1.096798	八 八 六 二
-1.149087	八 八 六 六
-0.8480572	四 八 六 七
-1.052177	零 八 六 一
-1.052177	零 八 六 九
-1.052177	<s> 六 六 一
-1.052177	<s> 六 六 四
-0.9272385	一 六 六 </s>
-0.9272385	一 六 六 二
-0.9941853	七 六 六 二
-0.9941853	七 六 六 五
-1.10333	三 六 六 一
-1.05104	三 六 六 五
-0.9998878	二 六 六 </s>
-1.052177	二 六 六 五
-0.9183928	五 六 六 </s>
-1.052177	八 六 六 </s>
-1.052177	八 六 六 八
-1.052177	八 六 六 六
-0.7511472	六 六 六 一
-1.096798	四 六 六 </s>
-1.149087	四 六 六 九
-1.149087	四 六 六 八
-1.19048	<s> 四 六 七
-1.19048	<s> 四 六 八
-1.19048	<s> 四 六 六
-1.19048	<s> 四 六 零
-1.052177	一 四 六 七
-0.9418959	七 四 六 一
-0.9941853	七 四 六 九
-1.325179	三 四 六 </s>
-1.316333	三 四 六 二
-1.325179	三 四 六 五
-1.325179	三 四 六 四
-1.325179	三 四 六 零
-1.094484	九 四 六 六
-0.9998878	五 四 六 七
-1.052177	五 四 六 四
-1.175979	八 四 六 五
-1.228269	八 四 六 四
-1.175979	八 四 六 零
-0.8480572	四 四 六 三
-1.149087	零 四 六 七
-1.149087	零 四 六 三
-1.149087	零 四 六 二
-1.149087	零 四 六 零
-1.10333	<s> 零 六 一
-1.094484	<s> 零 六 七
-1.149087	一 零 六 二
-1.149087	一 零 六 四
-0.9272385	七 零 六 八
-0.9272385	五 零 六 九
-0.9272385	五 零 六 二
-0.7957678	八 零 六 三
-0.7511472	四 零 六 零
-1.052177	零 零 六 七
-0.9941853	<s> 一 四 七
-0.9941853	<s> 一 四 零
-1.19048	一 一 四 </s>
-1.19048	一 一 四 五
-1.19048	一 一 四 八
-1.19048	一 一 四 四
-1.052177	三 一 四 八
-0.9998878	九 一 四 二
-0.8480572	二 一 四 四
-1.228269	五 一 四 一
-1.228269	五 一 四 七
-1.228269	五 一 四 零
-0.9941853	八 一 四 八
-1.05104	六 一 四 五
-1.10333	六 一 四 六
-1.096798	四 一 四 三
-1.149087	四 一 四 五
-1.149087	四 一 四 六
-1.10333	零 一 四 </s>
-1.10333	零 一 四 二
-1.263031	<s> 七 四 一
-1.254185	<s> 七 四 七
-1.263031	<s> 七 四 九
-1.263031	<s> 七 四 零
-1.052177	一 七 四 </s>
-1.052177	一 七 四 七
-0.9998878	一 七 四 五
-0.8480572	七 七 四 一
-0.9272385	三 七 四 </s>
-0.9272385	三 七 四 一
-1.05104	九 七 四 二
-1.05104	九 七 四 八
-0.8480572	二 七 四 四
-0.9272385	五 七 四 六
-1.219423	八 七 四 </s>
-1.175979	八 七 四 一
-1.149087	六 七 四 一
-1.149087	六 七 四 七
-1.149087	六 七 四 五
-0.7957678	四 七 四 </s>
-1.10333	零 七 四 </s>
-1.10333	零 七 四 一
-1.052177	<s> 三 四 七
-1.052177	<s> 三 四 三
-1.052177	<s> 三 四 六
-0.9272385	一 三 四 二
-1.149087	七 三 四 一
-1.149087	七 三 四 五
-1.052177	三 三 四 五
-1.052177	三 三 四 六
-0.8749491	九 三 四 一
-1.228269	二 三 四 </s>
-1.228269	二 三 四 六
-1.175979	二 三 四 四
-0.9209072	五 三 四 六
-1.096798	八 三 四 四
-1.149087	八 三 四 零
-0.9272385	六 三 四 二
-1.10333	四 三 四 </s>
-1.10333	四 三 四 七
-1.149087	零 三 四 八
-1.149087	零 三 四 六
-1.10333	<s> 九 四 七
-1.05104	<s> 九 四 六
-1.10333	一 九 四 七
-1.10333	一 九 四 四
-1.228269	七 九 四 </s>
-1.228269	七 九 四 一
-1.175979	七 九 四 七
-1.228269	七 九 四 二
-1.228269	七 九 四 四
-1.10333	三 九 四 七
-1.10333	三 九 四 八
-1.10333	三 九 四 零
-0.9941853	九 九 四 九
-0.9941853	五 九 四 九
-1.10333	八 九 四 二
-1.10333	八 九 四 六
-0.9418959	六 九 四 </s>
-0.9941853	六 九 四 二
-0.9998878	四 九 四 一
-1.052177	四 九 四 九
-1.228269	<s> 二 四 一
-1.228269	<s> 二 四 六
-1.175979	<s> 二 四 四
-1.228269	<s> 二 四 零
-0.6262085	一 二 四 </s>
-1.28637	七 二 四 </s>
-1.112793	七 二 四 二
-1.210741	三 二 四 </s>
-1.263031	三 二 四 六
-1.263031	三 二 四 四
-1.263031	三 二 四 零
-1.263031	九 二 四 九
-1.254185	九 二 四 五
-1.263031	九 二 四 六
-1.263031	九 二 四 四
-0.9941853	二 二 四 九
-0.9941853	二 二 四 二
-0.9941853	二 二 四 八
-0.9941853	五 二 四 三
-1.19048	六 二 四 </s>
-1.19048	六 二 四 九
-1.19048	六 二 四 二
-0.8480572	零 二 四 八
-1.263031	<s> 五 四 二
-1.254185	<s> 五 四 五
-1.263031	<s> 五 四 八
-0.8749491	一 五 四 七
-1.263031	七 五 四 </s>
-1.263031	七 五 四 七
-1.263031	七 五 四 零
-1.10333	九 五 四 </s>
-1.05104	九 五 四 一
-0.1760913	二 五 四 三
-0.7511472	五 五 四 七
-1.094484	八 五 四 九
-1.10333	八 五 四 八
-1.10333	八 五 四 六
-1.052177	六 五 四 一
-1.052177	六 五 四 八
-1.052177	六 五 四 六
-0.9941853	四 五 四 </s>
-1.228269	零 五 四 </s>
-1.228269	零 五 四 一
-1.228269	零 五 四 二
-1.228269	零 五 四 零
-1.228269	<s> 八 四 一
-1.228269	<s> 八 四 三
-1.228269	<s> 八 四 八
-1.175979	<s> 八 四 六
-0.9272385	一 八 四 一
-0.8480572	七 八 四 三
-1.05104	三 八 四 </s>
-1.05104	三 八 四 一
-1.140242	九 八 四 </s>
-1.149087	九 八 四 八
-1.10333	二 八 四 七
-1.094484	二 八 四 九
-1.10333	五 八 四 一
-1.05104	五 八 四 六
-1.094484	八 八 四 一
-0.9941853	四 八 四 </s>
-0.9941853	零 八 四 六
-0.9941853	零 八 四 零
-0.9272385	<s> 六 四 八
-0.8749491	七 六 四 二
-0.9272385	七 六 四 六
-0.9941853	九 六 四 二
-0.9941853	九 六 四 五
-1.149087	二 六 四 </s>
-1.175979	五 六 四 七
-1.175979	五 六 四 零
-1.181634	八 六 四 </s>
-1.138191	八 六 四 三
-1.19048	八 六 四 五
-0.9272385	六 六 四 四
-1.096798	四 六 四 三
-1.149087	四 六 四 二
-0.9272385	零 六 四 七
-0.9998878	<s> 四 四 一
-1.149087	一 四 四 七
-1.149087	一 四 四 九
-1.149087	一 四 四 八
-1.228269	三 四 四 </s>
-1.228269	三 四 四 七
-1.228269	三 四 四 四
-1.254185	二 四 四 一
-1.263031	二 四 四 七
-1.263031	二 四 四 九
-0.9418959	八 四 四 一
-0.9941853	八 四 四 三
-0.9272385	六 四 四 一
-0.9272385	六 四 四 二
-0.8480572	零 四 四 九
-1.19048	<s> 零 四 三
-1.19048	<s> 零 四 六
-1.19048	<s> 零 四 四
-1.19048	<s> 零 四 零
-1.10333	一 零 四 七
-1.05104	一 零 四 五
-1.228269	七 零 四 七
-0.30103	七 零 四 六
-1.05104	二 零 四 四
-0.9941853	五 零 四 </s>
-0.8480572	六 零 四 一
-0.7511472	零 零 四 二
-1.228269	<s> 一 零 九
-1.175979	<s> 一 零 五
-1.228269	<s> 一 零 八
-1.228269	<s> 一 零 六
-1.175979	一 一 零 三
-1.175979	一 一 零 九
-1.228269	一 一 零 四
-1.096798	三 一 零 三
-1.149087	三 一 零 九
-1.149087	三 一 零 零
-1.175979	九 一 零 </s>
-1.219423	九 一 零 二
-0.7511472	五 一 零 六
-0.9272385	八 一 零 </s>
-0.9272385	八 一 零 二
-0.9941853	六 一 零 七
-0.9941853	六 一 零 四
-1.10333	四 一 零 二
-1.094484	四 一 零 六
-1.10333	零 一 零 </s>
-1.10333	零 一 零 三
-1.10333	零 一 零 二
-1.052177	<s> 七 零 一
-1.052177	<s> 七 零 九
-1.19048	一 七 零 </s>
-1.138191	一 七 零 二
-1.19048	一 七 零 六
-0.9418959	七 七 零 九
-0.9941853	七 七 零 四
-1.052177	三 七 零 八
-1.052177	三 七 零 四
-1.052177	二 七 零 八
-0.9941853	五 七 零 </s>
-0.9941853	五 七 零 三
-0.9272385	八 七 零 </s>
-1.149087	六 七 零 五
-1.096798	六 七 零 四
-1.052177	四 七 零 九
-0.9998878	四 七 零 五
-1.052177	四 七 零 四
-1.10333	零 七 零 三
-1.10333	零 七 零 八
-1.140242	<s> 三 零 三
-1.149087	<s> 三 零 八
-1.094484	一 三 零 </s>
-0.9272385	七 三 零 </s>
-0.9272385	七 三 零 一
-0.9272385	三 三 零 </s>
-0.9272385	三 三 零 二
-1.05104	九 三 零 三
-1.10333	九 三 零 八
-0.8480572	二 三 零 二
-1.052177	五 三 零 一
-1.052177	五 三 零 二
-1.052177	五 三 零 五
-1.149087	八 三 零 一
-1.149087	八 三 零 二
-1.149087	八 三 零 零
-1.10333	零 三 零 八
-1.10333	零 三 零 四
-1.149087	<s> 九 零 二
-1.096798	<s> 九 零 八
-1.149087	<s> 九 零 六
-0.9941853	一 九 零 三
-0.9941853	一 九 零 四
-1.210741	七 九 零 </s>
-1.263031	七 九 零 七
-1.254185	七 九 零 二
-1.052177	二 九 零 八
-1.10333	六 九 零 一
-1.10333	六 九 零 九
-1.10333	六 九 零 八
-0.7511472	四 九 零 九
-0.9418959	<s> 二 零 二
-0.9941853	<s> 二 零 五
-0.9941853	<s> 二 零 四
-0.9272385	一 二 零 五
-1.10333	七 二 零 七
-1.05104	七 二 零 三
-1.19048	三 二 零 一
-1.19048	三 二 零 三
-1.19048	三 二 零 八
-1.263031	九 二 零 七
-1.263031	九 二 零 三
-1.210741	九 二 零 五
-1.263031	九 二 零 八
-1.138191	二 二 零 七
-1.19048	二 二 零 二
-0.8749491	五 二 零 </s>
-0.9272385	五 二 零 八
-1.094484	八 二 零 </s>
-1.10333	八 二 零 八
-0.8480572	四 二 零 一
-1.052177	零 二 零 五
-1.10333	<s> 五 零 九
-1.10333	<s> 五 零 八
-0.9941853	一 五 零 五
-0.9941853	一 五 零 八
-0.9941853	一 五 零 零
-1.052177	七 五 零 </s>
-1.052177	七 五 零 二
-0.9941853	三 五 零 七
-0.9941853	三 五 零 五
-1.228269	九 五 零 </s>
-1.228269	九 五 零 八
-1.228269	九 五 零 六
-1.228269	九 五 零 四
-0.9418959	五 五 零 一
-1.228269	八 五 零 </s>
-1.228269	八 五 零 一
-1.228269	八 五 零 八
-1.228269	八 五 零 四
-1.210741	六 五 零 </s>
-1.210741	六 五 零 三
-1.210741	六 五 零 二
-1.263031	六 五 零 八
-0.9272385	四 五 零 五
-0.9272385	四 五 零 八
-1.10333	零 五 零 七
-1.10333	零 五 零 零
-1.263031	<s> 八 零 七
-1.263031	<s> 八 零 二
-1.263031	<s> 八 零 八
-1.263031	<s> 八 零 四
-1.263031	<s> 八 零 零
-0.8480572	一 八 零 八
-0.8480572	七 八 零 二
-0.8480572	七 八 零 五
-1.149087	三 八 零 八
-1.052177	九 八 零 九
-0.9272385	二 八 零 八
-1.10333	五 八 零 </s>
-1.05104	五 八 零 五
-0.7511472	八 八 零 </s>
-0.7511472	八 八 零 六
-0.9418959	六 八 零 </s>
-1.05104	零 八 零 </s>
-1.10333	零 八 零 五
-1.175979	<s> 六 零 一
-1.228269	<s> 六 零 二
-1.228269	<s> 六 零 八
-0.9418959	一 六 零 一
-1.228269	七 六 零 </s>
-1.175979	七 六 零 三
-1.228269	七 六 零 九
-1.228269	七 六 零 二
-1.10333	三 六 零 七
-1.10333	三 六 零 二
-0.8480572	九 六 零 五
-1.149087	五 六 零 </s>
-1.149087	五 六 零 三
-1.096798	五 六 零 零
-1.149087	八 六 零 四
-1.138191	四 六 零 一
-1.19048	四 六 零 五
-0.8480572	零 六 零 五
-0.8480572	零 六 零 零
-0.9666647	<s> 四 零 三
-0.9272385	一 四 零 零
-0.8480572	三 四 零 八
-1.052177	九 四 零 </s>
-1.052177	九 四 零 七
-1.052177	二 四 零 三
-1.052177	二 四 零 二
-1.052177	五 四 零 一
-0.9998878	五 四 零 五
-1.10333	八 四 零 一
-1.094484	八 四 零 二
-0.9941853	六 四 零 </s>
-0.9941853	六 四 零 八
-0.9272385	四 四 零 五
-1.242926	<s> 零 零 九
-1.242926	<s> 零 零 二
-1.242926	<s> 零 零 五
-1.28637	<s> 零 零 六
-0.7511472	七 零 零 六
-0.8749491	三 零 零 七
-0.6262085	二 零 零 五
-0.9209072	五 零 零 </s>
-1.10333	五 零 零 零
-0.9998878	八 零 零 </s>
-1.052177	八 零 零 一
-1.052177	六 零 零 二
-0.9272385	四 零 零 一
-0.8480572	零 零 零 </s>

\end\
